{"learner":{"attributes":{"scikit_learn":"{\"_estimator_type\": \"classifier\"}"},"feature_names":["segment","is_mature_ap_program","mcc","avg_ticket","max_ticket","monthly_txn_count","annual_spend","tenure_months","is_new_to_platform","current_rail","accepts_card_other_channel","days_sales_outstanding","past_data_quality_score","risk_level"],"feature_types":["int","int","int","float","float","int","float","int","int","int","int","int","float","int"],"gradient_booster":{"model":{"cats":{"enc":[],"feature_segments":[],"sorted_idx":[]},"gbtree_model_param":{"num_parallel_tree":"1","num_trees":"400"},"iteration_indptr":[0,1,2,3,4,5,6,7,8,9,10,11,12,13,14,15,16,17,18,19,20,21,22,23,24,25,26,27,28,29,30,31,32,33,34,35,36,37,38,39,40,41,42,43,44,45,46,47,48,49,50,51,52,53,54,55,56,57,58,59,60,61,62,63,64,65,66,67,68,69,70,71,72,73,74,75,76,77,78,79,80,81,82,83,84,85,86,87,88,89,90,91,92,93,94,95,96,97,98,99,100,101,102,103,104,105,106,107,108,109,110,111,112,113,114,115,116,117,118,119,120,121,122,123,124,125,126,127,128,129,130,131,132,133,134,135,136,137,138,139,140,141,142,143,144,145,146,147,148,149,150,151,152,153,154,155,156,157,158,159,160,161,162,163,164,165,166,167,168,169,170,171,172,173,174,175,176,177,178,179,180,181,182,183,184,185,186,187,188,189,190,191,192,193,194,195,196,197,198,199,200,201,202,203,204,205,206,207,208,209,210,211,212,213,214,215,216,217,218,219,220,221,222,223,224,225,226,227,228,229,230,231,232,233,234,235,236,237,238,239,240,241,242,243,244,245,246,247,248,249,250,251,252,253,254,255,256,257,258,259,260,261,262,263,264,265,266,267,268,269,270,271,272,273,274,275,276,277,278,279,280,281,282,283,284,285,286,287,288,289,290,291,292,293,294,295,296,297,298,299,300,301,302,303,304,305,306,307,308,309,310,311,312,313,314,315,316,317,318,319,320,321,322,323,324,325,326,327,328,329,330,331,332,333,334,335,336,337,338,339,340,341,342,343,344,345,346,347,348,349,350,351,352,353,354,355,356,357,358,359,360,361,362,363,364,365,366,367,368,369,370,371,372,373,374,375,376,377,378,379,380,381,382,383,384,385,386,387,388,389,390,391,392,393,394,395,396,397,398,399,400],"tree_info":[0,0,0,0,0,0,0,0,0,0,0,0,0,0,0,0,0,0,0,0,0,0,0,0,0,0,0,0,0,0,0,0,0,0,0,0,0,0,0,0,0,0,0,0,0,0,0,0,0,0,0,0,0,0,0,0,0,0,0,0,0,0,0,0,0,0,0,0,0,0,0,0,0,0,0,0,0,0,0,0,0,0,0,0,0,0,0,0,0,0,0,0,0,0,0,0,0,0,0,0,0,0,0,0,0,0,0,0,0,0,0,0,0,0,0,0,0,0,0,0,0,0,0,0,0,0,0,0,0,0,0,0,0,0,0,0,0,0,0,0,0,0,0,0,0,0,0,0,0,0,0,0,0,0,0,0,0,0,0,0,0,0,0,0,0,0,0,0,0,0,0,0,0,0,0,0,0,0,0,0,0,0,0,0,0,0,0,0,0,0,0,0,0,0,0,0,0,0,0,0,0,0,0,0,0,0,0,0,0,0,0,0,0,0,0,0,0,0,0,0,0,0,0,0,0,0,0,0,0,0,0,0,0,0,0,0,0,0,0,0,0,0,0,0,0,0,0,0,0,0,0,0,0,0,0,0,0,0,0,0,0,0,0,0,0,0,0,0,0,0,0,0,0,0,0,0,0,0,0,0,0,0,0,0,0,0,0,0,0,0,0,0,0,0,0,0,0,0,0,0,0,0,0,0,0,0,0,0,0,0,0,0,0,0,0,0,0,0,0,0,0,0,0,0,0,0,0,0,0,0,0,0,0,0,0,0,0,0,0,0,0,0,0,0,0,0,0,0,0,0,0,0,0,0,0,0,0,0,0,0,0,0,0,0,0,0,0,0,0,0,0,0,0,0,0,0,0,0,0,0,0,0,0,0,0,0,0,0,0,0,0,0,0,0,0,0,0,0,0,0],"trees":[{"base_weights":[6.7364178E-3,-3.7401235E-1,4.2732057E-1,-1.781064E-1,-5.4241866E-1,2.2351322E-1,7.6161194E-1,1.9378525E-1,-2.3503529E-1,-3.092609E-1,-5.859478E-1,4.0968013E-1,-4.4112425E-2,6.577329E-1,1.0282017E0,3.5891658E-1,-5.7837337E-2,-4.7694245E-1,-1.20342016E-1,-6.442206E-2,-4.6667922E-1,-6.252532E-1,-3.0697125E-1,2.7077675E-1,6.253948E-1,1.4868982E-1,-1.4566156E-1,5.591588E-1,8.292496E-1,1.2176834E0,8.1332046E-1,1.23689305E-2,4.270005E-2,-1.2810016E-2,3.0528504E-2,-3.2454073E-2,-1.5013953E-2,7.0829326E-3,-1.2807228E-2,-1.3503534E-2,3.2611474E-2,-5.4422498E-2,-1.6545506E-2,-2.7223159E-2,-3.6304783E-2,-9.855067E-3,-4.0670883E-2,3.4488283E-2,3.1313882E-3,3.748003E-2,1.1331195E-2,-1.3461733E-2,1.4638691E-2,-1.5105374E-2,4.8023784E-3,3.603034E-2,1.5318118E-2,4.64902E-2,2.6518473E-2,6.540146E-2,3.1309687E-2,7.077665E-2,3.2869782E-2],"categories":[],"categories_nodes":[],"categories_segments":[],"categories_sizes":[],"default_left":[0,0,0,0,0,0,0,0,0,0,0,0,0,0,1,0,0,0,0,0,0,0,0,0,1,0,0,0,0,0,0,0,0,0,0,0,0,0,0,0,0,0,0,0,0,0,0,0,0,0,0,0,0,0,0,0,0,0,0,0,0,0,0],"id":0,"left_children":[1,3,5,7,9,11,13,15,17,19,21,23,25,27,29,31,33,35,37,39,41,43,45,47,49,51,53,55,57,59,61,-1,-1,-1,-1,-1,-1,-1,-1,-1,-1,-1,-1,-1,-1,-1,-1,-1,-1,-1,-1,-1,-1,-1,-1,-1,-1,-1,-1,-1,-1,-1,-1],"loss_changes":[5.186545E2,5.5986862E1,1.04676605E2,1.6713596E1,9.09137E0,4.7721107E1,1.5453552E1,4.386355E0,1.8898773E1,5.591401E0,8.237946E0,1.6752724E1,7.7297397E0,6.6695404E0,5.5870056E0,3.2993698E0,5.7903233E0,6.477436E0,1.6574646E1,8.759132E0,7.1204453E0,5.086609E0,5.231658E0,3.0071625E1,1.0748962E1,8.287275E0,9.799391E0,1.0839485E1,4.072357E0,3.6608734E0,6.4602203E0,0E0,0E0,0E0,0E0,0E0,0E0,0E0,0E0,0E0,0E0,0E0,0E0,0E0,0E0,0E0,0E0,0E0,0E0,0E0,0E0,0E0,0E0,0E0,0E0,0E0,0E0,0E0,0E0,0E0,0E0,0E0,0E0],"parents":[2147483647,0,0,1,1,2,2,3,3,4,4,5,5,6,6,7,7,8,8,9,9,10,10,11,11,12,12,13,13,14,14,15,15,16,16,17,17,18,18,19,19,20,20,21,21,22,22,23,23,24,24,25,25,26,26,27,27,28,28,29,29,30,30],"right_children":[2,4,6,8,10,12,14,16,18,20,22,24,26,28,30,32,34,36,38,40,42,44,46,48,50,52,54,56,58,60,62,-1,-1,-1,-1,-1,-1,-1,-1,-1,-1,-1,-1,-1,-1,-1,-1,-1,-1,-1,-1,-1,-1,-1,-1,-1,-1,-1,-1,-1,-1,-1,-1],"split_conditions":[1E0,1E0,2E0,2E0,3.66E-1,1E0,1E0,7.34337E3,6E0,1.18465E3,1.59E2,9E0,6.2E1,1.4E1,5.72E-1,2.747004E4,1.2505916E5,6.53E-1,3.23849E3,9.0223E2,8.19406E3,9.79028E3,8.308722E5,3E0,7.73E-1,4E0,1.3E1,9E0,1E0,1.57E2,4.9382E2,1.23689305E-2,4.270005E-2,-1.2810016E-2,3.0528504E-2,-3.2454073E-2,-1.5013953E-2,7.0829326E-3,-1.2807228E-2,-1.3503534E-2,3.2611474E-2,-5.4422498E-2,-1.6545506E-2,-2.7223159E-2,-3.6304783E-2,-9.855067E-3,-4.0670883E-2,3.4488283E-2,3.1313882E-3,3.748003E-2,1.1331195E-2,-1.3461733E-2,1.4638691E-2,-1.5105374E-2,4.8023784E-3,3.603034E-2,1.5318118E-2,4.64902E-2,2.6518473E-2,6.540146E-2,3.1309687E-2,7.077665E-2,3.2869782E-2],"split_indices":[0,9,0,2,12,9,1,3,2,3,7,2,7,5,12,4,4,12,4,3,4,4,6,2,12,2,5,5,9,7,3,0,0,0,0,0,0,0,0,0,0,0,0,0,0,0,0,0,0,0,0,0,0,0,0,0,0,0,0,0,0,0,0],"split_type":[0,0,0,0,0,0,0,0,0,0,0,0,0,0,0,0,0,0,0,0,0,0,0,0,0,0,0,0,0,0,0,0,0,0,0,0,0,0,0,0,0,0,0,0,0,0,0,0,0,0,0,0,0,0,0,0,0,0,0,0,0,0,0],"sum_hessian":[3.2368213E3,1.6989222E3,1.537899E3,7.8629175E2,9.126305E2,9.5644934E2,5.8144965E2,1.04066536E2,6.822252E2,1.4485258E2,7.677779E2,5.637561E2,3.9269324E2,4.2090686E2,1.605428E2,6.2574566E1,4.1491966E1,2.1840802E2,4.638172E2,5.723774E1,8.761485E1,6.718751E2,9.590279E1,3.4430554E2,2.1945055E2,1.3531624E2,2.57377E2,2.6999518E2,1.5091167E2,8.28336E1,7.77092E1,5.2293083E1,1.0281485E1,3.2471973E1,9.019993E0,1.09266106E2,1.09141914E2,1.5832376E2,3.0549344E2,4.4959435E1,1.2278302E1,1.4445062E1,7.316979E1,3.765782E2,2.9529694E2,7.994786E1,1.5954929E1,1.1350812E2,2.3079744E2,1.666607E2,5.2789837E1,3.4468792E1,1.0084744E2,1.560949E2,1.01282104E2,1.6363771E2,1.0635748E2,1.11341354E2,3.9570316E1,7.0806946E1,1.2026657E1,1.4320873E1,6.338833E1],"tree_param":{"num_deleted":"0","num_feature":"14","num_nodes":"63","size_leaf_vector":"1"}},{"base_weights":[-5.6826444E-3,-3.6603454E-1,3.945445E-1,-1.579549E-1,-5.493459E-1,2.0108879E-1,7.074111E-1,-3.0117482E-1,4.301268E-2,-3.5007402E-1,-5.983427E-1,3.869786E-1,-6.2066376E-2,6.075599E-1,9.647317E-1,1.232598E-1,-3.566678E-1,-1.0783266E0,6.15441E-2,-2.2890978E-2,-5.56835E-1,-7.163235E-1,-4.77503E-1,2.582533E-1,5.926154E-1,-2.3942654E-1,1.16526306E-1,5.086693E-1,7.821193E-1,1.1425468E0,7.553007E-1,-8.146796E-3,1.9126756E-2,-2.8438121E-2,-6.8207826E-3,3.4981043E-4,-7.4455015E-2,1.5474646E-2,-6.290462E-4,5.1624323E-3,-4.1582905E-2,-3.521821E-2,-1.5999345E-2,-2.3739893E-2,-4.023665E-2,-9.746889E-3,-3.0799547E-2,3.0437091E-2,4.3647257E-3,1.6406495E-2,4.025122E-2,-1.7753057E-2,3.3890035E-3,2.2193052E-2,-1.1735217E-3,1.881548E-2,3.2680307E-2,4.077765E-2,-1.3257054E-3,6.171689E-2,2.741164E-2,-1.3374723E-2,4.000337E-2],"categories":[],"categories_nodes":[],"categories_segments":[],"categories_sizes":[],"default_left":[0,0,0,0,0,0,0,0,0,0,0,0,0,0,1,0,0,0,0,0,0,0,0,0,0,0,0,0,0,0,0,0,0,0,0,0,0,0,0,0,0,0,0,0,0,0,0,0,0,0,0,0,0,0,0,0,0,0,0,0,0,0,0],"id":1,"left_children":[1,3,5,7,9,11,13,15,17,19,21,23,25,27,29,31,33,35,37,39,41,43,45,47,49,51,53,55,57,59,61,-1,-1,-1,-1,-1,-1,-1,-1,-1,-1,-1,-1,-1,-1,-1,-1,-1,-1,-1,-1,-1,-1,-1,-1,-1,-1,-1,-1,-1,-1,-1,-1],"loss_changes":[4.673301E2,6.495154E1,9.277911E1,2.303909E1,8.637421E0,4.6498386E1,1.4475159E1,1.1048897E1,7.001993E0,1.2247383E1,1.000647E1,1.4588417E1,1.2512713E1,6.938858E0,5.176361E0,4.1263733E0,1.923735E1,2.4535947E0,6.055879E0,7.3517737E0,3.653534E0,7.417755E0,1.4029549E1,2.057531E1,1.17372055E1,7.0607843E0,9.041106E0,5.013672E0,4.1267548E0,4.0015335E0,3.7587128E0,0E0,0E0,0E0,0E0,0E0,0E0,0E0,0E0,0E0,0E0,0E0,0E0,0E0,0E0,0E0,0E0,0E0,0E0,0E0,0E0,0E0,0E0,0E0,0E0,0E0,0E0,0E0,0E0,0E0,0E0,0E0,0E0],"parents":[2147483647,0,0,1,1,2,2,3,3,4,4,5,5,6,6,7,7,8,8,9,9,10,10,11,11,12,12,13,13,14,14,15,15,16,16,17,17,18,18,19,19,20,20,21,21,22,22,23,23,24,24,25,25,26,26,27,27,28,28,29,29,30,30],"right_children":[2,4,6,8,10,12,14,16,18,20,22,24,26,28,30,32,34,36,38,40,42,44,46,48,50,52,54,56,58,60,62,-1,-1,-1,-1,-1,-1,-1,-1,-1,-1,-1,-1,-1,-1,-1,-1,-1,-1,-1,-1,-1,-1,-1,-1,-1,-1,-1,-1,-1,-1,-1,-1],"split_conditions":[1E0,1E0,2E0,1E0,3E0,1E0,1E0,2E0,8.4E-2,2E0,9E0,9E0,1E0,1.4E1,5.72E-1,9E1,8E0,1.16821E3,5.4382E2,1.5213431E6,1.12E2,4.7E-1,1.1E1,3E0,1E0,1.8679722E6,5.5E1,8E0,3.6E1,1.57E2,5.86E-1,-8.146796E-3,1.9126756E-2,-2.8438121E-2,-6.8207826E-3,3.4981043E-4,-7.4455015E-2,1.5474646E-2,-6.290462E-4,5.1624323E-3,-4.1582905E-2,-3.521821E-2,-1.5999345E-2,-2.3739893E-2,-4.023665E-2,-9.746889E-3,-3.0799547E-2,3.0437091E-2,4.3647257E-3,1.6406495E-2,4.025122E-2,-1.7753057E-2,3.3890035E-3,2.2193052E-2,-1.1735217E-3,1.881548E-2,3.2680307E-2,4.077765E-2,-1.3257054E-3,6.171689E-2,2.741164E-2,-1.3374723E-2,4.000337E-2],"split_indices":[0,9,0,10,2,9,1,2,12,13,2,2,10,5,12,7,2,3,3,6,7,12,2,2,10,6,7,2,5,7,12,0,0,0,0,0,0,0,0,0,0,0,0,0,0,0,0,0,0,0,0,0,0,0,0,0,0,0,0,0,0,0,0],"split_type":[0,0,0,0,0,0,0,0,0,0,0,0,0,0,0,0,0,0,0,0,0,0,0,0,0,0,0,0,0,0,0,0,0,0,0,0,0,0,0,0,0,0,0,0,0,0,0,0,0,0,0,0,0,0,0,0,0,0,0,0,0,0,0],"sum_hessian":[3.2383372E3,1.7041024E3,1.5342346E3,7.9900305E2,9.050994E2,9.490491E2,5.8518555E2,4.662386E2,3.3276447E2,1.8023235E2,7.2486707E2,5.558983E2,3.9315073E2,4.2401215E2,1.6117343E2,5.3768917E1,4.1246967E2,4.48016E0,3.282843E2,7.022211E1,1.1001025E2,3.642788E2,3.6058826E2,3.4327173E2,2.126266E2,1.9708513E2,1.9606561E2,2.7317062E2,1.5084149E2,8.475641E1,7.641703E1,2.5734257E1,2.803466E1,2.0931998E2,2.031497E2,1.4999766E0,2.9801838E0,7.482357E1,2.5346072E2,6.150223E1,8.719877E0,6.657054E1,4.3439705E1,9.931919E1,2.6495963E2,1.19392395E2,2.4119585E2,1.1170358E2,2.3156815E2,9.583741E1,1.16789185E2,1.4307498E2,5.401014E1,5.808443E1,1.3798119E2,1.4466006E2,1.2851057E2,1.4484421E2,5.9972878E0,7.248438E1,1.2272026E1,2.9958038E0,7.342123E1],"tree_param":{"num_deleted":"0","num_feature":"14","num_nodes":"63","size_leaf_vector":"1"}},{"base_weights":[-1.6386328E-3,-3.4790736E-1,3.8136965E-1,-1.6458285E-1,-5.061409E-1,2.0341107E-1,6.700585E-1,-2.9958236E-1,2.1214463E-2,-5.642978E-1,-3.0836406E-1,3.741143E-1,-4.047219E-2,5.8031535E-1,9.024691E-1,-4.437812E-1,-1.12781174E-1,1.1816514E-1,-1.9465342E-1,-5.3512335E-1,-9.661836E-1,-2.673909E-1,-1.0254496E0,2.491581E-1,5.697972E-1,-2.3358618E-1,1.4679812E-1,6.30134E-1,3.244157E-1,1.1152686E0,6.514157E-1,3.1390586E-3,-2.8661717E-2,4.1897823E-3,-1.4788175E-2,1.0190151E-2,-8.084449E-3,-1.7316822E-2,1.7130023E-2,-1.04120765E-2,-2.8288862E-2,-7.135308E-2,-3.565688E-2,3.971232E-3,-1.758225E-2,8.383669E-3,-7.753317E-2,3.0131081E-2,3.8365282E-3,1.5844468E-2,3.945546E-2,3.9682083E-2,-1.3396806E-2,2.4588196E-2,-3.227352E-5,-2.3973746E-2,3.2126855E-2,-4.36218E-3,2.67458E-2,5.7503816E-2,1.398038E-2,4.0304523E-2,8.35761E-3],"categories":[],"categories_nodes":[],"categories_segments":[],"categories_sizes":[],"default_left":[0,0,0,0,0,0,0,0,0,0,0,0,0,0,1,0,0,0,0,0,0,0,0,0,0,0,0,0,0,0,0,0,0,0,0,0,0,0,0,0,0,0,0,0,0,0,0,0,0,0,0,0,0,0,0,0,0,0,0,0,0,0,0],"id":2,"left_children":[1,3,5,7,9,11,13,15,17,19,21,23,25,27,29,31,33,35,37,39,41,43,45,47,49,51,53,55,57,59,61,-1,-1,-1,-1,-1,-1,-1,-1,-1,-1,-1,-1,-1,-1,-1,-1,-1,-1,-1,-1,-1,-1,-1,-1,-1,-1,-1,-1,-1,-1,-1,-1],"loss_changes":[4.2864835E2,4.9156204E1,7.8704315E1,1.9767763E1,1.0299606E1,3.9599377E1,1.16736145E1,1.2243008E1,6.981394E0,7.7192535E0,5.8700523E0,1.3536949E1,1.4225114E1,5.2098083E0,7.8805237E0,1.6903107E1,7.224453E0,5.546604E0,8.546837E0,6.467087E0,4.3821945E0,5.8478317E0,7.1219482E0,2.0869993E1,1.1799088E1,7.042804E0,1.0164085E1,5.1858826E0,6.222292E0,2.173912E0,5.5815086E0,0E0,0E0,0E0,0E0,0E0,0E0,0E0,0E0,0E0,0E0,0E0,0E0,0E0,0E0,0E0,0E0,0E0,0E0,0E0,0E0,0E0,0E0,0E0,0E0,0E0,0E0,0E0,0E0,0E0,0E0,0E0,0E0],"parents":[2147483647,0,0,1,1,2,2,3,3,4,4,5,5,6,6,7,7,8,8,9,9,10,10,11,11,12,12,13,13,14,14,15,15,16,16,17,17,18,18,19,19,20,20,21,21,22,22,23,23,24,24,25,25,26,26,27,27,28,28,29,29,30,30],"right_children":[2,4,6,8,10,12,14,16,18,20,22,24,26,28,30,32,34,36,38,40,42,44,46,48,50,52,54,56,58,60,62,-1,-1,-1,-1,-1,-1,-1,-1,-1,-1,-1,-1,-1,-1,-1,-1,-1,-1,-1,-1,-1,-1,-1,-1,-1,-1,-1,-1,-1,-1,-1,-1],"split_conditions":[1E0,1E0,2E0,1E0,1.4E2,1E0,1E0,8E0,1.22E2,2.7E1,2.3379265E6,9E0,1E0,3.308579E4,5.72E-1,2E0,1.0616E3,5.5701706E5,4.585887E5,2.63E-1,3E1,3E0,4.53E-1,3E0,1E0,2.83034E4,5.5E1,8.066E1,9.14762E3,1.73E2,1E0,3.1390586E-3,-2.8661717E-2,4.1897823E-3,-1.4788175E-2,1.0190151E-2,-8.084449E-3,-1.7316822E-2,1.7130023E-2,-1.04120765E-2,-2.8288862E-2,-7.135308E-2,-3.565688E-2,3.971232E-3,-1.758225E-2,8.383669E-3,-7.753317E-2,3.0131081E-2,3.8365282E-3,1.5844468E-2,3.945546E-2,3.9682083E-2,-1.3396806E-2,2.4588196E-2,-3.227352E-5,-2.3973746E-2,3.2126855E-2,-4.36218E-3,2.67458E-2,5.7503816E-2,1.398038E-2,4.0304523E-2,8.35761E-3],"split_indices":[0,9,0,10,7,9,1,2,7,5,6,2,10,4,12,2,3,6,6,12,5,2,12,2,10,6,7,3,3,7,9,0,0,0,0,0,0,0,0,0,0,0,0,0,0,0,0,0,0,0,0,0,0,0,0,0,0,0,0,0,0,0,0],"split_type":[0,0,0,0,0,0,0,0,0,0,0,0,0,0,0,0,0,0,0,0,0,0,0,0,0,0,0,0,0,0,0,0,0,0,0,0,0,0,0,0,0,0,0,0,0,0,0,0,0,0,0,0,0,0,0,0,0,0,0,0,0,0,0],"sum_hessian":[3.2300618E3,1.696441E3,1.5336206E3,7.868549E2,9.095861E2,9.4982043E2,5.8380023E2,4.5537152E2,3.314834E2,7.014648E2,2.0812137E2,5.58424E2,3.913964E2,4.2369244E2,1.6010777E2,2.562144E2,1.9915714E2,2.2906033E2,1.0242307E2,6.5616284E2,4.5301937E1,1.9817107E2,9.950299E0,3.4218808E2,2.1623596E2,1.9257E2,1.9882639E2,3.534251E2,7.02673E1,8.4792786E1,7.531499E1,5.2254112E1,2.0396027E2,9.627333E1,1.02883804E2,1.7559764E2,5.3462692E1,8.014974E1,2.2273335E1,5.6925343E1,5.992375E2,1.4412539E1,3.0889399E1,3.874443E1,1.5942664E2,3.249406E0,6.7008934E0,1.1137754E2,2.3081053E2,1.0156145E2,1.1467451E2,5.515825E0,1.8705418E2,5.883591E1,1.3999046E2,3.4906049E0,3.499345E2,2.3972214E1,4.6295094E1,8.1040955E1,3.7518272E0,5.657898E1,1.8736012E1],"tree_param":{"num_deleted":"0","num_feature":"14","num_nodes":"63","size_leaf_vector":"1"}},{"base_weights":[5.9036876E-4,-3.2248476E-1,3.5619035E-1,-4.2244062E-1,-1.8832432E-1,1.8179029E-1,6.405238E-1,-1.4646943E-1,-4.588639E-1,8.0546826E-2,-2.2144915E-1,1.7516436E-2,3.467032E-1,5.406351E-1,8.8765836E-1,-3.1888217E-1,1.4368114E-1,-5.9323865E-1,-3.2034326E-1,-2.0030318E-2,6.4116126E-1,-8.577984E-3,-2.6472172E-1,4.1100547E-1,-2.9921683E-2,4.002162E-1,-1.9756572E-1,3.9151707E-1,6.664837E-1,1.0956658E0,6.498815E-1,-9.186186E-3,-4.4880975E-2,-1.324974E-2,2.964282E-2,-1.6700223E-2,-3.433961E-2,-9.042414E-3,-2.4635287E-2,3.8386916E-3,-4.0019974E-2,-1.5732573E-2,4.287104E-2,1.2026056E-2,-1.8364957E-2,-1.5256737E-2,5.6538795E-4,5.383965E-3,4.0766966E-2,-2.5901452E-3,4.031628E-2,1.3133816E-2,2.8986841E-2,-2.4275227E-2,5.9557427E-3,1.1343231E-2,3.4000956E-2,-3.56496E-2,3.3863332E-2,5.86452E-2,2.9205535E-2,7.2189674E-2,2.8469145E-2],"categories":[],"categories_nodes":[],"categories_segments":[],"categories_sizes":[],"default_left":[0,0,0,0,0,0,0,0,0,0,0,0,0,0,1,0,0,1,0,0,0,0,0,0,0,0,0,0,0,0,0,0,0,0,0,0,0,0,0,0,0,0,0,0,0,0,0,0,0,0,0,0,0,0,0,0,0,0,0,0,0,0,0],"id":3,"left_children":[1,3,5,7,9,11,13,15,17,19,21,23,25,27,29,31,33,35,37,39,41,43,45,47,49,51,53,55,57,59,61,-1,-1,-1,-1,-1,-1,-1,-1,-1,-1,-1,-1,-1,-1,-1,-1,-1,-1,-1,-1,-1,-1,-1,-1,-1,-1,-1,-1,-1,-1,-1,-1],"loss_changes":[3.7230066E2,2.2690338E1,7.638054E1,9.705292E0,6.490494E0,2.5935377E1,1.3988235E1,5.7899237E0,1.5787781E1,4.54889E0,5.9603367E0,8.986502E0,1.3995293E1,7.6198425E0,7.5547943E0,5.4932513E0,8.140036E0,1.030925E1,1.0125843E1,5.287525E0,2.8055472E0,9.952275E0,6.0039787E0,6.264284E0,7.909518E0,1.0597328E1,4.0190783E0,9.090981E0,3.849289E0,2.779869E0,4.3193207E0,0E0,0E0,0E0,0E0,0E0,0E0,0E0,0E0,0E0,0E0,0E0,0E0,0E0,0E0,0E0,0E0,0E0,0E0,0E0,0E0,0E0,0E0,0E0,0E0,0E0,0E0,0E0,0E0,0E0,0E0,0E0,0E0],"parents":[2147483647,0,0,1,1,2,2,3,3,4,4,5,5,6,6,7,7,8,8,9,9,10,10,11,11,12,12,13,13,14,14,15,15,16,16,17,17,18,18,19,19,20,20,21,21,22,22,23,23,24,24,25,25,26,26,27,27,28,28,29,29,30,30],"right_children":[2,4,6,8,10,12,14,16,18,20,22,24,26,28,30,32,34,36,38,40,42,44,46,48,50,52,54,56,58,60,62,-1,-1,-1,-1,-1,-1,-1,-1,-1,-1,-1,-1,-1,-1,-1,-1,-1,-1,-1,-1,-1,-1,-1,-1,-1,-1,-1,-1,-1,-1,-1,-1],"split_conditions":[1E0,1E0,2E0,2E0,2.7172E2,1E0,1E0,1.17E2,8E0,1.32887E3,2E0,2.96E-1,1.65E2,1E0,5.72E-1,1.4311079E6,1E0,3.66E-1,5.69863E3,3.584235E4,3.7E1,7.34337E3,2.3E1,2.06E-1,3.6E1,9E0,6.48E-1,1.4E1,2E0,1.57E2,1.05894E3,-9.186186E-3,-4.4880975E-2,-1.324974E-2,2.964282E-2,-1.6700223E-2,-3.433961E-2,-9.042414E-3,-2.4635287E-2,3.8386916E-3,-4.0019974E-2,-1.5732573E-2,4.287104E-2,1.2026056E-2,-1.8364957E-2,-1.5256737E-2,5.6538795E-4,5.383965E-3,4.0766966E-2,-2.5901452E-3,4.031628E-2,1.3133816E-2,2.8986841E-2,-2.4275227E-2,5.9557427E-3,1.1343231E-2,3.4000956E-2,-3.56496E-2,3.3863332E-2,5.86452E-2,2.9205535E-2,7.2189674E-2,2.8469145E-2],"split_indices":[0,10,0,2,3,10,1,7,2,4,2,12,7,10,12,6,2,12,4,6,7,3,5,12,5,2,12,5,5,7,4,0,0,0,0,0,0,0,0,0,0,0,0,0,0,0,0,0,0,0,0,0,0,0,0,0,0,0,0,0,0,0,0],"split_type":[0,0,0,0,0,0,0,0,0,0,0,0,0,0,0,0,0,0,0,0,0,0,0,0,0,0,0,0,0,0,0,0,0,0,0,0,0,0,0,0,0,0,0,0,0,0,0,0,0,0,0,0,0,0,0,0,0,0,0,0,0,0,0],"sum_hessian":[3.238623E3,1.6969642E3,1.5416588E3,9.712149E2,7.257494E2,9.565713E2,5.850876E2,1.1382322E2,8.5739166E2,7.944777E1,6.4630164E2,4.7976834E2,4.7680292E2,4.1894348E2,1.6614409E2,7.13354E1,4.2487812E1,4.335424E2,4.2384927E2,6.818016E1,1.1267605E1,1.09387764E2,5.369139E2,5.079238E1,4.2897598E2,4.3436087E2,4.2442062E1,1.9362646E2,2.2531702E2,8.669512E1,7.944896E1,5.8897842E1,1.2437559E1,2.2461535E1,2.002628E1,1.161803E2,3.173621E2,2.3539253E2,1.8845676E2,6.145797E1,6.7221913E0,1.9950436E0,9.272561E0,6.475254E1,4.4635223E1,4.6825238E2,6.8661476E1,2.974464E1,2.104774E1,4.1895175E2,1.0024226E1,2.4733116E2,1.8702971E2,2.1950592E1,2.049147E1,1.24410095E2,6.921638E1,1.242475E0,2.2407454E2,7.419919E1,1.2495938E1,5.755001E0,7.369396E1],"tree_param":{"num_deleted":"0","num_feature":"14","num_nodes":"63","size_leaf_vector":"1"}},{"base_weights":[6.179948E-3,-3.0573764E-1,3.482139E-1,-1.3153546E-1,-4.5805398E-1,1.8776682E-1,6.106599E-1,-2.4730618E-1,3.0620486E-2,-5.374898E-1,-3.5123512E-1,3.4673148E-1,-4.218851E-2,5.1517266E-1,8.5825515E-1,1.6806848E-1,-3.0424863E-1,-6.438859E-2,4.2509787E-2,-4.4541916E-1,-6.449388E-1,-3.161067E-1,-7.897482E-1,1.7213461E-1,5.2375925E-1,-1.9380529E-1,1.0163634E-1,3.6360693E-1,6.1737716E-1,1.0744002E0,6.0948026E-1,2.4096377E-2,1.4147679E-3,-2.4125857E-2,-6.003861E-3,6.21597E-4,2.3789134E-2,-2.345586E-2,4.1315902E-2,-8.164347E-3,-3.5913445E-2,5.0063437E-4,-1.8367644E-2,-1.5225862E-2,-4.7937203E-2,3.4783673E-2,5.2096057E-3,1.7692195E-2,3.7521172E-2,3.8781747E-2,-1.1134171E-2,-3.171346E-2,7.874094E-3,3.0493988E-2,6.4322585E-3,3.5370406E-2,1.9251667E-2,4.9214836E-2,7.506227E-2,6.966647E-2,2.6367808E-2],"categories":[],"categories_nodes":[],"categories_segments":[],"categories_sizes":[],"default_left":[0,0,0,0,0,0,0,0,0,0,0,0,0,0,1,0,0,0,0,0,0,0,1,0,0,0,0,0,0,0,0,0,0,0,0,0,0,0,0,0,0,0,0,0,0,0,0,0,0,0,0,0,0,0,0,0,0,0,0,0,0],"id":4,"left_children":[1,3,5,7,9,11,13,15,17,19,21,23,25,27,29,31,33,-1,35,37,39,41,43,45,47,49,51,53,55,57,59,-1,-1,-1,-1,-1,-1,-1,-1,-1,-1,-1,-1,-1,-1,-1,-1,-1,-1,-1,-1,-1,-1,-1,-1,-1,-1,-1,-1,-1,-1],"loss_changes":[3.4505222E2,4.482483E1,6.484436E1,1.4847909E1,7.4657593E0,3.506362E1,1.3384811E1,1.0962896E1,5.230258E0,4.8122864E0,5.7213936E0,1.7435547E1,8.584945E0,6.3524094E0,8.017059E0,2.4545634E0,1.3274269E1,0E0,4.2711406E0,8.851391E0,8.205414E0,6.0291634E0,2.010765E0,1.0134806E1,1.0559143E1,5.535522E0,8.410934E0,9.956787E0,5.0020065E0,1.790863E0,4.2404633E0,0E0,0E0,0E0,0E0,0E0,0E0,0E0,0E0,0E0,0E0,0E0,0E0,0E0,0E0,0E0,0E0,0E0,0E0,0E0,0E0,0E0,0E0,0E0,0E0,0E0,0E0,0E0,0E0,0E0,0E0],"parents":[2147483647,0,0,1,1,2,2,3,3,4,4,5,5,6,6,7,7,8,8,9,9,10,10,11,11,12,12,13,13,14,14,15,15,16,16,18,18,19,19,20,20,21,21,22,22,23,23,24,24,25,25,26,26,27,27,28,28,29,29,30,30],"right_children":[2,4,6,8,10,12,14,16,18,20,22,24,26,28,30,32,34,-1,36,38,40,42,44,46,48,50,52,54,56,58,60,-1,-1,-1,-1,-1,-1,-1,-1,-1,-1,-1,-1,-1,-1,-1,-1,-1,-1,-1,-1,-1,-1,-1,-1,-1,-1,-1,-1,-1,-1],"split_conditions":[1E0,1E0,2E0,1E0,1E0,1E0,1E0,2E0,3.6E-2,9.79028E3,1.5213431E6,1E0,1E0,6E0,5.75E-1,9.6584E3,8E0,-6.438859E-2,7.797219E4,9.55091E3,3.13E-1,2E0,3.44E-1,2.96E-1,9E0,2.73476E4,2.29E-1,3E0,1E0,1.5660267E7,1.01898E3,2.4096377E-2,1.4147679E-3,-2.4125857E-2,-6.003861E-3,6.21597E-4,2.3789134E-2,-2.345586E-2,4.1315902E-2,-8.164347E-3,-3.5913445E-2,5.0063437E-4,-1.8367644E-2,-1.5225862E-2,-4.7937203E-2,3.4783673E-2,5.2096057E-3,1.7692195E-2,3.7521172E-2,3.8781747E-2,-1.1134171E-2,-3.171346E-2,7.874094E-3,3.0493988E-2,6.4322585E-3,3.5370406E-2,1.9251667E-2,4.9214836E-2,7.506227E-2,6.966647E-2,2.6367808E-2],"split_indices":[0,9,0,10,10,9,1,2,12,4,6,10,10,2,12,4,2,0,4,4,12,2,12,12,2,6,12,2,9,6,4,0,0,0,0,0,0,0,0,0,0,0,0,0,0,0,0,0,0,0,0,0,0,0,0,0,0,0,0,0,0],"split_type":[0,0,0,0,0,0,0,0,0,0,0,0,0,0,0,0,0,0,0,0,0,0,0,0,0,0,0,0,0,0,0,0,0,0,0,0,0,0,0,0,0,0,0,0,0,0,0,0,0,0,0,0,0,0,0,0,0,0,0,0,0],"sum_hessian":[3.2322678E3,1.6906172E3,1.5416506E3,7.895186E2,9.010985E2,9.578076E2,5.83843E2,4.603372E2,3.2918146E2,5.144765E2,3.86622E2,5.660192E2,3.9178842E2,4.2357025E2,1.6027278E2,5.526288E1,4.050743E2,1.9829297E0,3.2719852E2,2.7983655E2,2.3463995E2,3.5954074E2,2.7081245E1,2.859591E2,2.8006012E2,1.9055856E2,2.0122986E2,1.72426E2,2.5114426E2,8.3984825E1,7.628795E1,1.627334E1,3.898954E1,2.0501266E2,2.0006166E2,3.0692075E2,2.0277777E1,2.7533694E2,4.4996066E0,3.1429451E1,2.032105E2,4.8934822E1,3.1060593E2,7.7192373E0,1.936201E1,3.178637E1,2.5417273E2,1.6153156E2,1.1852856E2,4.76423E0,1.8579434E2,1.3463027E1,1.8776683E2,8.3407555E1,8.901845E1,1.7953252E2,7.161175E1,7.2076126E1,1.19087E1,5.720588E0,7.056736E1],"tree_param":{"num_deleted":"0","num_feature":"14","num_nodes":"61","size_leaf_vector":"1"}},{"base_weights":[-1.2357185E-2,-3.0838168E-1,3.145894E-1,-1.4510542E-1,-4.5060438E-1,1.5277694E-1,5.7896805E-1,-2.6309863E-1,1.7153881E-2,-3.1785238E-1,-5.5680525E-1,3.016775E-1,-6.1449308E-2,7.9727644E-1,4.5465234E-1,1.7612869E-1,-3.185155E-1,-7.5405184E-3,6.489758E-1,-1.5823385E-1,-4.8149726E-1,-5.277926E-1,-1.035912E0,1.7457986E-1,5.042367E-1,-2.33502E-1,1.06162466E-1,-3.2707083E-1,8.151168E-1,3.465367E-1,7.3516124E-1,3.127581E-2,1.0312445E-3,-1.120882E-2,-3.1388696E-2,1.5628861E-2,-2.859907E-3,-3.5333652E-3,5.8882404E-2,1.684535E-2,-1.1821064E-2,-2.5205733E-3,-3.011304E-2,-2.5619159E-2,-5.5329647E-2,-5.523395E-2,-1.511275E-2,2.6587576E-2,5.715088E-5,1.5425119E-2,3.3458855E-2,1.1139459E-2,-1.4866203E-2,2.5129855E-2,-3.0073111E-3,-4.7812335E-2,2.934645E-2,7.214821E-2,3.8540196E-2,1.991662E-2,-5.7241237E-3,2.1622123E-3,3.92254E-2],"categories":[],"categories_nodes":[],"categories_segments":[],"categories_sizes":[],"default_left":[0,0,0,0,0,0,0,0,0,0,0,0,0,0,0,0,0,0,0,0,0,0,0,0,0,0,0,0,0,0,0,0,0,0,0,0,0,0,0,0,0,0,0,0,0,0,0,0,0,0,0,0,0,0,0,0,0,0,0,0,0,0,0],"id":5,"left_children":[1,3,5,7,9,11,13,15,17,19,21,23,25,27,29,31,33,35,37,39,41,43,45,47,49,51,53,55,57,59,61,-1,-1,-1,-1,-1,-1,-1,-1,-1,-1,-1,-1,-1,-1,-1,-1,-1,-1,-1,-1,-1,-1,-1,-1,-1,-1,-1,-1,-1,-1,-1,-1],"loss_changes":[3.115315E2,3.916234E1,6.534517E1,1.5089354E1,1.2544998E1,3.0327765E1,1.5388168E1,1.1161232E1,5.1953073E0,1.0460484E1,6.403183E0,1.4347771E1,1.12847E1,4.4638977E0,1.1030563E1,3.6040325E0,1.1689247E1,5.1228404E0,4.8482327E0,8.0428095E0,1.0313316E1,3.6559448E0,1.0540066E0,2.1437344E1,6.7559013E0,5.6862907E0,1.311523E1,2.8511722E0,4.62648E0,6.5044594E0,3.4703102E0,0E0,0E0,0E0,0E0,0E0,0E0,0E0,0E0,0E0,0E0,0E0,0E0,0E0,0E0,0E0,0E0,0E0,0E0,0E0,0E0,0E0,0E0,0E0,0E0,0E0,0E0,0E0,0E0,0E0,0E0,0E0,0E0],"parents":[2147483647,0,0,1,1,2,2,3,3,4,4,5,5,6,6,7,7,8,8,9,9,10,10,11,11,12,12,13,13,14,14,15,15,16,16,17,17,18,18,19,19,20,20,21,21,22,22,23,23,24,24,25,25,26,26,27,27,28,28,29,29,30,30],"right_children":[2,4,6,8,10,12,14,16,18,20,22,24,26,28,30,32,34,36,38,40,42,44,46,48,50,52,54,56,58,60,62,-1,-1,-1,-1,-1,-1,-1,-1,-1,-1,-1,-1,-1,-1,-1,-1,-1,-1,-1,-1,-1,-1,-1,-1,-1,-1,-1,-1,-1,-1,-1,-1],"split_conditions":[1E0,1E0,2E0,1E0,4.6E1,1E0,4.3E1,2E0,2.8855968E6,1.90716E3,2.8E1,9E0,1E0,8.066E1,1E0,3.9E1,4.585887E5,3.3E1,4.4E1,3E0,2E0,7.6E1,7E1,3E0,1E0,1.47007E3,5.5E1,3.5E1,8.7827E2,6.8E1,1.4E1,3.127581E-2,1.0312445E-3,-1.120882E-2,-3.1388696E-2,1.5628861E-2,-2.859907E-3,-3.5333652E-3,5.8882404E-2,1.684535E-2,-1.1821064E-2,-2.5205733E-3,-3.011304E-2,-2.5619159E-2,-5.5329647E-2,-5.523395E-2,-1.511275E-2,2.6587576E-2,5.715088E-5,1.5425119E-2,3.3458855E-2,1.1139459E-2,-1.4866203E-2,2.5129855E-2,-3.0073111E-3,-4.7812335E-2,2.934645E-2,7.214821E-2,3.8540196E-2,1.991662E-2,-5.7241237E-3,2.1622123E-3,3.92254E-2],"split_indices":[0,9,0,10,11,9,11,2,6,3,5,2,10,3,1,11,6,11,11,2,2,11,11,2,10,4,7,11,4,11,7,0,0,0,0,0,0,0,0,0,0,0,0,0,0,0,0,0,0,0,0,0,0,0,0,0,0,0,0,0,0,0,0],"split_type":[0,0,0,0,0,0,0,0,0,0,0,0,0,0,0,0,0,0,0,0,0,0,0,0,0,0,0,0,0,0,0,0,0,0,0,0,0,0,0,0,0,0,0,0,0,0,0,0,0,0,0,0,0,0,0,0,0,0,0,0,0,0,0],"sum_hessian":[3.2168237E3,1.6882776E3,1.528546E3,7.8690533E2,9.013723E2,9.4918E2,5.79366E2,4.55239E2,3.3166632E2,4.0238297E2,4.9898935E2,5.5972687E2,3.8945316E2,2.0824966E2,3.711164E2,5.075813E1,4.044809E2,3.201418E2,1.1524497E1,2.046931E2,1.9768985E2,4.7247964E2,2.6509712E1,3.4507086E2,2.14656E2,1.9198665E2,1.974665E2,2.982014E0,2.0526765E2,2.6948502E2,1.0163136E2,1.2271742E1,3.848639E1,3.11257E2,9.32239E1,4.2281242E1,2.778606E2,5.247622E0,6.2768745E0,2.7463686E1,1.7722942E2,4.3571484E1,1.5411836E2,4.620634E2,1.0416259E1,2.377548E1,2.734233E0,1.12115974E2,2.329549E2,9.947712E1,1.1517889E2,2.3252659E1,1.68734E2,5.7760094E1,1.397064E2,1.7388257E0,1.2431884E0,1.1451657E1,1.93816E2,2.4238855E2,2.7096478E1,6.8906264E0,9.474074E1],"tree_param":{"num_deleted":"0","num_feature":"14","num_nodes":"63","size_leaf_vector":"1"}},{"base_weights":[1.2741325E-4,-2.760835E-1,3.0544445E-1,-3.5425124E-1,-1.6981576E-1,1.4680867E-1,5.673117E-1,-1.687434E-1,-4.192733E-1,-9.697078E-2,-3.1451303E-1,-3.7596312E-3,2.9767546E-1,7.8312737E-1,4.4455472E-1,2.1095456E-1,-2.6196674E-1,-3.483235E-1,-5.881374E-1,-1.778743E-1,1.0310593E-1,-2.360779E-1,-6.1898434E-1,3.6240056E-1,-6.175425E-2,4.4513446E-1,1.2980267E-1,8.1583583E-1,2.2706759E-1,2.771119E-1,5.8854496E-1,1.9414604E-2,-3.606565E-2,-2.0230995E-3,-2.2187427E-2,-2.3429364E-2,-1.36299385E-2,-3.8450617E-2,-1.9190006E-2,-1.1106418E-2,4.6420335E-3,-2.5514523E-2,7.097728E-3,1.7625751E-2,-1.4346302E-2,-4.1640487E-2,-1.4869834E-2,-2.1419803E-2,2.1911718E-2,-3.771218E-3,7.229332E-2,2.4068099E-2,-2.0973077E-3,4.0866076E-3,6.3351706E-2,5.2030962E-2,3.690328E-2,-1.0638183E-2,4.0808927E-2,7.2823204E-3,3.1122912E-2,1.16473E-2,3.3808853E-2],"categories":[],"categories_nodes":[],"categories_segments":[],"categories_sizes":[],"default_left":[0,0,0,0,0,0,0,0,0,0,1,0,0,0,0,0,0,0,0,0,0,0,0,0,0,0,0,0,0,0,0,0,0,0,0,0,0,0,0,0,0,0,0,0,0,0,0,0,0,0,0,0,0,0,0,0,0,0,0,0,0,0,0],"id":6,"left_children":[1,3,5,7,9,11,13,15,17,19,21,23,25,27,29,31,33,35,37,39,41,43,45,47,49,51,53,55,57,59,61,-1,-1,-1,-1,-1,-1,-1,-1,-1,-1,-1,-1,-1,-1,-1,-1,-1,-1,-1,-1,-1,-1,-1,-1,-1,-1,-1,-1,-1,-1,-1,-1],"loss_changes":[2.7115616E2,1.3962723E1,6.3359207E1,1.1650581E1,7.5311337E0,2.163591E1,1.49062805E1,9.041756E0,8.407814E0,7.765636E0,5.5800133E0,1.0165766E1,1.1719048E1,3.5878983E0,8.741737E0,8.645443E0,8.207492E0,4.504429E0,7.511711E0,4.107951E0,3.3714585E0,5.855749E0,3.0873203E0,4.113122E0,8.625018E0,4.482113E0,1.2135695E1,2.6503143E0,3.5188975E0,7.747981E0,6.002777E0,0E0,0E0,0E0,0E0,0E0,0E0,0E0,0E0,0E0,0E0,0E0,0E0,0E0,0E0,0E0,0E0,0E0,0E0,0E0,0E0,0E0,0E0,0E0,0E0,0E0,0E0,0E0,0E0,0E0,0E0,0E0,0E0],"parents":[2147483647,0,0,1,1,2,2,3,3,4,4,5,5,6,6,7,7,8,8,9,9,10,10,11,11,12,12,13,13,14,14,15,15,16,16,17,17,18,18,19,19,20,20,21,21,22,22,23,23,24,24,25,25,26,26,27,27,28,28,29,29,30,30],"right_children":[2,4,6,8,10,12,14,16,18,20,22,24,26,28,30,32,34,36,38,40,42,44,46,48,50,52,54,56,58,60,62,-1,-1,-1,-1,-1,-1,-1,-1,-1,-1,-1,-1,-1,-1,-1,-1,-1,-1,-1,-1,-1,-1,-1,-1,-1,-1,-1,-1,-1,-1,-1,-1],"split_conditions":[1E0,1E0,2E0,3.9E1,5.3E1,1E0,4.3E1,3E0,3.6715447E5,1.6E1,8.01E-1,3.36E-1,9.8E1,1.7E2,1E0,1.606244E6,1.49347E3,5.62E-1,8.5025494E5,9.99E-1,1.3E1,2.2788E2,9E0,4E0,4.98983E4,6.7E1,3.2E1,7.1817625E5,1.300041E4,1E0,3.1E1,1.9414604E-2,-3.606565E-2,-2.0230995E-3,-2.2187427E-2,-2.3429364E-2,-1.36299385E-2,-3.8450617E-2,-1.9190006E-2,-1.1106418E-2,4.6420335E-3,-2.5514523E-2,7.097728E-3,1.7625751E-2,-1.4346302E-2,-4.1640487E-2,-1.4869834E-2,-2.1419803E-2,2.1911718E-2,-3.771218E-3,7.229332E-2,2.4068099E-2,-2.0973077E-3,4.0866076E-3,6.3351706E-2,5.2030962E-2,3.690328E-2,-1.0638183E-2,4.0808927E-2,7.2823204E-3,3.1122912E-2,1.16473E-2,3.3808853E-2],"split_indices":[0,10,0,11,11,10,11,2,6,5,12,12,7,7,10,6,3,12,6,12,7,3,2,5,3,11,5,6,4,1,7,0,0,0,0,0,0,0,0,0,0,0,0,0,0,0,0,0,0,0,0,0,0,0,0,0,0,0,0,0,0,0,0],"split_type":[0,0,0,0,0,0,0,0,0,0,0,0,0,0,0,0,0,0,0,0,0,0,0,0,0,0,0,0,0,0,0,0,0,0,0,0,0,0,0,0,0,0,0,0,0,0,0,0,0,0,0,0,0,0,0,0,0,0,0,0,0,0,0],"sum_hessian":[3.2133455E3,1.6871388E3,1.5262068E3,9.7074835E2,7.1639044E2,9.514135E2,5.747932E2,2.5287929E2,7.17869E2,4.7761484E2,2.387756E2,4.7666583E2,4.747477E2,2.0645357E2,3.6833966E2,4.95992E1,2.0328008E2,5.0764148E2,2.1022755E2,3.401727E2,1.3744212E2,1.9127615E2,4.749946E1,6.4456764E1,4.1220905E2,2.5186157E2,2.2288614E2,1.9454301E2,1.1910548E1,1.7165302E2,1.9668665E2,4.216248E1,7.4367213E0,9.217977E1,1.1110031E2,1.9413455E2,3.1350693E2,1.1005012E2,1.00177444E2,2.925317E2,4.7640995E1,7.4634447E0,1.2997867E2,1.4738447E1,1.765377E2,2.7575005E1,1.9924456E1,5.233418E0,5.9223347E1,4.0944644E2,2.762619E0,2.3443666E2,1.742491E1,2.1487527E2,8.010861E0,4.6824097E1,1.4771892E2,7.1850314E0,4.7255173E0,1.25354965E2,4.6298046E1,3.9610596E1,1.5707605E2],"tree_param":{"num_deleted":"0","num_feature":"14","num_nodes":"63","size_leaf_vector":"1"}},{"base_weights":[4.660658E-3,-2.6078048E-1,3.032141E-1,-1.05137564E-1,-3.9653143E-1,1.6220097E-1,5.380476E-1,-2.0433585E-1,3.2130472E-2,-3.0795988E-1,-5.31675E-1,2.9934555E-1,-3.4074992E-2,7.836933E-1,4.0441802E-1,-1.7659299E-1,-8.867466E-1,-9.549119E-1,4.7550477E-2,-9.369106E-2,-3.6502606E-1,-5.127154E-1,-1.1380583E0,2.2741549E-1,5.9549487E-1,-1.8765365E-1,1.17642134E-1,6.4734834E-1,9.9435E-1,2.3810184E-1,5.51573E-1,-9.637109E-3,4.9690213E-2,-4.9742263E-2,1.5440496E-2,1.4455715E-3,-6.79796E-2,-9.4503015E-3,5.0348104E-3,-1.9370936E-2,2.6789263E-3,-2.5429657E-2,-1.1064976E-2,-2.8399045E-2,-1.6240347E-2,-2.9869152E-2,-6.7916565E-2,2.554555E-2,6.4619305E-3,6.527024E-2,2.6230723E-2,-6.2059396E-4,-1.9474778E-2,1.9670783E-2,-7.8603486E-4,-2.8157387E-2,3.3947673E-2,5.3041548E-2,3.2894567E-3,3.0108383E-2,7.6190047E-3,3.627207E-2,1.837886E-2],"categories":[],"categories_nodes":[],"categories_segments":[],"categories_sizes":[],"default_left":[0,0,0,0,0,0,0,0,0,0,0,0,0,0,0,0,0,0,0,0,0,0,1,0,0,0,0,0,0,0,0,0,0,0,0,0,0,0,0,0,0,0,0,0,0,0,0,0,0,0,0,0,0,0,0,0,0,0,0,0,0,0,0],"id":7,"left_children":[1,3,5,7,9,11,13,15,17,19,21,23,25,27,29,31,33,35,37,39,41,43,45,47,49,51,53,55,57,59,61,-1,-1,-1,-1,-1,-1,-1,-1,-1,-1,-1,-1,-1,-1,-1,-1,-1,-1,-1,-1,-1,-1,-1,-1,-1,-1,-1,-1,-1,-1,-1,-1],"loss_changes":[2.5618817E2,3.6115173E1,5.029521E1,1.08807125E1,1.0772949E1,2.563785E1,1.8406784E1,8.622423E0,5.157462E0,6.743763E0,3.5594864E0,1.18055E1,9.167613E0,5.0978928E0,8.960827E0,8.6373625E0,2.6162834E0,2.1151276E0,4.188641E0,5.1219916E0,8.912807E0,3.4632568E0,3.921156E-1,1.2531826E1,4.796154E0,6.908119E0,7.2905407E0,5.1348076E0,4.6638336E0,5.4057436E0,6.0145874E0,0E0,0E0,0E0,0E0,0E0,0E0,0E0,0E0,0E0,0E0,0E0,0E0,0E0,0E0,0E0,0E0,0E0,0E0,0E0,0E0,0E0,0E0,0E0,0E0,0E0,0E0,0E0,0E0,0E0,0E0,0E0,0E0],"parents":[2147483647,0,0,1,1,2,2,3,3,4,4,5,5,6,6,7,7,8,8,9,9,10,10,11,11,12,12,13,13,14,14,15,15,16,16,17,17,18,18,19,19,20,20,21,21,22,22,23,23,24,24,25,25,26,26,27,27,28,28,29,29,30,30],"right_children":[2,4,6,8,10,12,14,16,18,20,22,24,26,28,30,32,34,36,38,40,42,44,46,48,50,52,54,56,58,60,62,-1,-1,-1,-1,-1,-1,-1,-1,-1,-1,-1,-1,-1,-1,-1,-1,-1,-1,-1,-1,-1,-1,-1,-1,-1,-1,-1,-1,-1,-1,-1,-1],"split_conditions":[1E0,1E0,2E0,1E0,5.1E1,1E0,4.3E1,7E1,8.4E-2,3E0,2.9854642E6,1.2E1,1E0,1.4E1,1E0,3.7E1,1.1717161E6,3.01072E3,3.3E1,1E0,9E0,1.39E2,4.73E-1,3E0,2.57E-1,4.8E1,5.9E1,1.8E1,1.68E2,3E0,5.4E1,-9.637109E-3,4.9690213E-2,-4.9742263E-2,1.5440496E-2,1.4455715E-3,-6.79796E-2,-9.4503015E-3,5.0348104E-3,-1.9370936E-2,2.6789263E-3,-2.5429657E-2,-1.1064976E-2,-2.8399045E-2,-1.6240347E-2,-2.9869152E-2,-6.7916565E-2,2.554555E-2,6.4619305E-3,6.527024E-2,2.6230723E-2,-6.2059396E-4,-1.9474778E-2,1.9670783E-2,-7.8603486E-4,-2.8157387E-2,3.3947673E-2,5.3041548E-2,3.2894567E-3,3.0108383E-2,7.6190047E-3,3.627207E-2,1.837886E-2],"split_indices":[0,9,0,10,11,9,11,11,12,2,6,2,10,5,10,5,6,4,7,2,2,7,12,2,12,11,7,11,7,2,11,0,0,0,0,0,0,0,0,0,0,0,0,0,0,0,0,0,0,0,0,0,0,0,0,0,0,0,0,0,0,0,0],"split_type":[0,0,0,0,0,0,0,0,0,0,0,0,0,0,0,0,0,0,0,0,0,0,0,0,0,0,0,0,0,0,0,0,0,0,0,0,0,0,0,0,0,0,0,0,0,0,0,0,0,0,0,0,0,0,0,0,0,0,0,0,0,0,0],"sum_hessian":[3.2307273E3,1.7102692E3,1.5204581E3,7.9758575E2,9.126835E2,9.5105695E2,5.694012E2,4.6271262E2,3.348731E2,5.5332153E2,3.5936194E2,5.595532E2,3.9150372E2,1.9890247E2,3.7049872E2,4.4584592E2,1.686673E1,4.213877E0,3.3065924E2,1.1692812E2,4.3639343E2,3.5025613E2,9.105792E0,4.5162778E2,1.0792547E2,1.9444057E2,1.9706316E2,1.2322175E2,7.5680725E1,1.7515482E2,1.9534392E2,4.4060178E2,5.244119E0,1.5622105E1,1.244624E0,1.4987655E0,2.715112E0,6.0190304E1,2.7046893E2,3.8503204E1,7.842492E1,2.1704779E2,2.1934563E2,2.6909146E2,8.116469E1,3.7103913E0,5.395401E0,1.1508999E2,3.3653778E2,8.216389E0,9.9709076E1,1.0464656E2,8.979401E1,6.3599453E1,1.334637E2,2.7074242E0,1.2051432E2,7.04914E1,5.1893263E0,3.223328E1,1.4292152E2,9.8923035E1,9.642089E1],"tree_param":{"num_deleted":"0","num_feature":"14","num_nodes":"63","size_leaf_vector":"1"}},{"base_weights":[-3.7518234E-4,-2.4871737E-1,2.7595642E-1,-9.537078E-2,-3.848775E-1,1.4313684E-1,4.952549E-1,-1.9643389E-1,4.562847E-2,-2.6975197E-1,-4.7641802E-1,2.6611418E-1,-3.4492247E-2,3.9626148E-1,7.518481E-1,5.293248E-1,-2.2682822E-1,-1.075756E0,6.2326983E-2,-1.315726E-1,-4.1378617E-1,-6.1295414E-1,-3.8447875E-1,3.037019E-1,-3.728632E-1,-1.6329673E-1,8.8790745E-2,5.926024E-1,2.87052E-1,1.1465905E0,6.611432E-1,-1.1817526E-2,4.0930375E-2,-9.843103E-3,-4.4883795E-2,-9.846125E-3,-6.5942444E-2,1.9955586E-3,3.1325337E-2,1.5541888E-2,-9.82667E-3,-4.9760688E-2,-1.8533688E-2,-1.5182312E-2,-3.5971716E-2,-1.4205794E-2,-3.022109E-2,7.357135E-3,2.3503274E-2,-4.1639652E-2,5.784423E-3,2.6501832E-3,-1.52459135E-2,-5.0815437E-3,1.5330362E-2,2.0667216E-2,4.4231974E-2,5.44163E-3,2.2395128E-2,1.3575025E-2,6.326532E-2,4.3453876E-2,2.1161277E-2],"categories":[],"categories_nodes":[],"categories_segments":[],"categories_sizes":[],"default_left":[0,0,0,0,0,0,0,0,0,0,0,0,0,0,0,0,0,0,0,0,0,1,0,0,0,0,0,0,0,0,1,0,0,0,0,0,0,0,0,0,0,0,0,0,0,0,0,0,0,0,0,0,0,0,0,0,0,0,0,0,0,0,0],"id":8,"left_children":[1,3,5,7,9,11,13,15,17,19,21,23,25,27,29,31,33,35,37,39,41,43,45,47,49,51,53,55,57,59,61,-1,-1,-1,-1,-1,-1,-1,-1,-1,-1,-1,-1,-1,-1,-1,-1,-1,-1,-1,-1,-1,-1,-1,-1,-1,-1,-1,-1,-1,-1,-1,-1],"loss_changes":[2.2031029E2,3.5266876E1,4.4189255E1,1.1359617E1,9.306351E0,2.0712803E1,1.4251038E1,1.0359179E1,6.309678E0,7.8837357E0,6.0083466E0,1.3567001E1,6.185544E0,8.737633E0,4.911377E0,4.3925605E0,8.793377E0,7.969928E-1,4.141152E0,5.9535036E0,4.5146675E0,6.318405E0,6.4490433E0,1.3724407E1,7.190003E0,5.848828E0,8.293933E0,7.3581963E0,7.6593285E0,2.5885735E0,6.1187553E0,0E0,0E0,0E0,0E0,0E0,0E0,0E0,0E0,0E0,0E0,0E0,0E0,0E0,0E0,0E0,0E0,0E0,0E0,0E0,0E0,0E0,0E0,0E0,0E0,0E0,0E0,0E0,0E0,0E0,0E0,0E0,0E0],"parents":[2147483647,0,0,1,1,2,2,3,3,4,4,5,5,6,6,7,7,8,8,9,9,10,10,11,11,12,12,13,13,14,14,15,15,16,16,17,17,18,18,19,19,20,20,21,21,22,22,23,23,24,24,25,25,26,26,27,27,28,28,29,29,30,30],"right_children":[2,4,6,8,10,12,14,16,18,20,22,24,26,28,30,32,34,36,38,40,42,44,46,48,50,52,54,56,58,60,62,-1,-1,-1,-1,-1,-1,-1,-1,-1,-1,-1,-1,-1,-1,-1,-1,-1,-1,-1,-1,-1,-1,-1,-1,-1,-1,-1,-1,-1,-1,-1,-1],"split_conditions":[1E0,1E0,2E0,1E0,4.6E1,1E0,1E0,2.4E1,8.4E-2,1.90716E3,2E0,7.797219E4,1E0,4.3E1,4.9382E2,7E0,7E1,4.9382E2,1.1616889E5,2.7E1,6.73405E3,3.41E-1,7.97E-1,1E0,1.2505916E5,4.4E1,6.77E-1,1.4E1,1E0,2.1E1,5.72E-1,-1.1817526E-2,4.0930375E-2,-9.843103E-3,-4.4883795E-2,-9.846125E-3,-6.5942444E-2,1.9955586E-3,3.1325337E-2,1.5541888E-2,-9.82667E-3,-4.9760688E-2,-1.8533688E-2,-1.5182312E-2,-3.5971716E-2,-1.4205794E-2,-3.022109E-2,7.357135E-3,2.3503274E-2,-4.1639652E-2,5.784423E-3,2.6501832E-3,-1.52459135E-2,-5.0815437E-3,1.5330362E-2,2.0667216E-2,4.4231974E-2,5.44163E-3,2.2395128E-2,1.3575025E-2,6.326532E-2,4.3453876E-2,2.1161277E-2],"split_indices":[0,9,0,10,11,9,1,11,12,3,13,4,10,11,3,5,11,3,4,11,4,12,12,10,4,11,12,5,10,7,12,0,0,0,0,0,0,0,0,0,0,0,0,0,0,0,0,0,0,0,0,0,0,0,0,0,0,0,0,0,0,0,0],"split_type":[0,0,0,0,0,0,0,0,0,0,0,0,0,0,0,0,0,0,0,0,0,0,0,0,0,0,0,0,0,0,0,0,0,0,0,0,0,0,0,0,0,0,0,0,0,0,0,0,0,0,0,0,0,0,0,0,0,0,0,0,0,0,0],"sum_hessian":[3.2083596E3,1.6898096E3,1.51855E3,7.9554706E2,8.942625E2,9.467795E2,5.717706E2,4.6317032E2,3.323767E2,3.978522E2,4.964103E2,5.5916003E2,3.8761945E2,4.144287E2,1.573419E2,1.7957773E1,4.4521255E2,3.9462318E0,3.2843048E2,2.0402965E2,1.9382256E2,1.9747679E2,2.9893353E2,5.2859045E2,3.0569534E1,1.8940596E2,1.9821349E2,1.4654262E2,2.6788608E2,2.7223955E1,1.3011795E2,4.9744205E0,1.2983353E1,4.274138E2,1.7798742E1,1.2472442E0,2.6989875E0,3.1690988E2,1.1520619E1,2.5638134E1,1.7839151E2,1.1855219E1,1.8196735E2,5.1558674E1,1.4591812E2,2.0684103E2,9.2092476E1,2.732904E2,2.5530006E2,1.5383067E1,1.5186467E1,7.519121E1,1.1421476E2,1.0604192E2,9.217157E1,9.230151E1,5.424111E1,1.27877174E2,1.400089E2,3.64471E0,2.3579245E1,6.801853E1,6.209942E1],"tree_param":{"num_deleted":"0","num_feature":"14","num_nodes":"63","size_leaf_vector":"1"}},{"base_weights":[1.3897308E-2,1.8857932E-1,-1.9835262E-1,1.4828739E-1,7.5123864E-1,-2.6990005E-1,-5.671442E-3,2.1924056E-2,2.932758E-1,1.1654409E0,6.183023E-1,-5.0624643E-2,-3.317238E-1,1.8247193E-1,-1.7971767E-1,6.3625528E-3,9.790136E-1,1.9875287E-1,4.258542E-1,4.043066E-1,1.320345E0,7.989699E-1,2.2167656E-1,-2.2228318E-1,3.2887638E-1,-1.07041396E-1,-3.8754538E-1,4.8839603E-2,6.473078E-1,1.1986442E-1,-3.190714E-1,1.5357009E-2,-1.708065E-3,-9.265619E-3,6.0829192E-2,8.906643E-3,4.5447268E-2,2.7955342E-2,1.1539648E-2,-1.4496072E-2,4.694565E-2,6.906778E-2,2.2648921E-2,3.4221306E-2,7.3088154E-2,3.139677E-2,-4.5383885E-3,-4.590879E-3,-2.5740508E-2,8.2575595E-3,3.8524706E-2,-1.0036058E-2,1.6015558E-2,-3.294959E-2,-1.6554764E-2,-4.5125704E-2,5.6419703E-3,-2.0647971E-2,3.730101E-2,-2.4090368E-2,1.7510055E-2,-2.9894307E-2,-9.274433E-3],"categories":[],"categories_nodes":[],"categories_segments":[],"categories_sizes":[],"default_left":[0,0,0,0,0,0,0,0,0,0,1,0,0,0,0,0,0,0,0,0,0,0,0,0,0,0,0,0,0,0,0,0,0,0,0,0,0,0,0,0,0,0,0,0,0,0,0,0,0,0,0,0,0,0,0,0,0,0,0,0,0,0,0],"id":9,"left_children":[1,3,5,7,9,11,13,15,17,19,21,23,25,27,29,31,33,35,37,39,41,43,45,47,49,51,53,55,57,59,61,-1,-1,-1,-1,-1,-1,-1,-1,-1,-1,-1,-1,-1,-1,-1,-1,-1,-1,-1,-1,-1,-1,-1,-1,-1,-1,-1,-1,-1,-1,-1,-1],"loss_changes":[1.1832731E2,3.957628E1,1.9861515E1,2.9946606E1,5.707321E0,1.4226433E1,1.2841808E1,1.30202875E1,9.455147E0,2.6770782E0,6.3082466E0,1.5203473E1,1.023558E1,1.1675421E1,8.542282E0,1.0512772E1,4.0943003E0,6.373537E0,8.083775E0,2.5163395E0,5.483742E-1,3.6910744E0,3.8279433E0,6.0788617E0,5.132148E0,6.647794E0,9.833153E0,9.08051E0,4.7040005E0,9.232006E0,5.077381E0,0E0,0E0,0E0,0E0,0E0,0E0,0E0,0E0,0E0,0E0,0E0,0E0,0E0,0E0,0E0,0E0,0E0,0E0,0E0,0E0,0E0,0E0,0E0,0E0,0E0,0E0,0E0,0E0,0E0,0E0,0E0,0E0],"parents":[2147483647,0,0,1,1,2,2,3,3,4,4,5,5,6,6,7,7,8,8,9,9,10,10,11,11,12,12,13,13,14,14,15,15,16,16,17,17,18,18,19,19,20,20,21,21,22,22,23,23,24,24,25,25,26,26,27,27,28,28,29,29,30,30],"right_children":[2,4,6,8,10,12,14,16,18,20,22,24,26,28,30,32,34,36,38,40,42,44,46,48,50,52,54,56,58,60,62,-1,-1,-1,-1,-1,-1,-1,-1,-1,-1,-1,-1,-1,-1,-1,-1,-1,-1,-1,-1,-1,-1,-1,-1,-1,-1,-1,-1,-1,-1,-1,-1],"split_conditions":[1E0,1E0,9.4021975E5,1E0,6.9593E2,1.64725E3,2.576513E4,3.7E1,9E0,3.7E1,6.69E-1,7.955765E4,3E0,3.850494E6,2E0,2E0,3E1,2.7006992E7,1.3E1,1E0,1.51E2,6.205174E4,6.5E1,1.4E1,1.37E2,1.51E2,5E0,1.97E-1,1.2E1,6E1,2.0871589E6,1.5357009E-2,-1.708065E-3,-9.265619E-3,6.0829192E-2,8.906643E-3,4.5447268E-2,2.7955342E-2,1.1539648E-2,-1.4496072E-2,4.694565E-2,6.906778E-2,2.2648921E-2,3.4221306E-2,7.3088154E-2,3.139677E-2,-4.5383885E-3,-4.590879E-3,-2.5740508E-2,8.2575595E-3,3.8524706E-2,-1.0036058E-2,1.6015558E-2,-3.294959E-2,-1.6554764E-2,-4.5125704E-2,5.6419703E-3,-2.0647971E-2,3.730101E-2,-2.4090368E-2,1.7510055E-2,-2.9894307E-2,-9.274433E-3],"split_indices":[9,1,6,10,3,4,4,5,2,7,12,6,2,6,2,2,7,6,5,13,7,4,7,5,7,7,2,12,7,7,6,0,0,0,0,0,0,0,0,0,0,0,0,0,0,0,0,0,0,0,0,0,0,0,0,0,0,0,0,0,0,0,0],"split_type":[0,0,0,0,0,0,0,0,0,0,0,0,0,0,0,0,0,0,0,0,0,0,0,0,0,0,0,0,0,0,0,0,0,0,0,0,0,0,0,0,0,0,0,0,0,0,0,0,0,0,0,0,0,0,0,0,0,0,0,0,0,0,0],"sum_hessian":[3.1894497E3,1.7496207E3,1.439829E3,1.6338823E3,1.15738464E2,1.049662E3,3.9016696E2,8.736296E2,7.6025275E2,2.6233473E1,8.950499E1,2.3125829E2,8.1840375E2,1.8746718E2,2.0269978E2,8.606428E2,1.2986711E1,4.452833E2,3.1496948E2,5.046603E0,2.1186869E1,6.0796883E1,2.870811E1,1.5951819E2,7.17401E1,1.634466E2,6.5495715E2,1.4646584E2,4.1001343E1,6.4397705E1,1.3830206E2,1.014058E2,7.5923706E2,2.23805E0,1.0748661E1,4.3393506E2,1.1348218E1,1.860241E2,1.2894537E2,2.3946524E0,2.6519508E0,1.9240877E1,1.9459913E0,5.357133E1,7.225549E0,1.2041405E1,1.6666706E1,1.1122587E2,4.8292316E1,5.3339134E1,1.8400965E1,1.3449445E2,2.895215E1,1.1091871E2,5.4403845E2,8.406206E0,1.3805963E2,3.2210176E0,3.7780327E1,1.7525883E1,4.6871826E1,4.36726E1,9.462947E1],"tree_param":{"num_deleted":"0","num_feature":"14","num_nodes":"63","size_leaf_vector":"1"}},{"base_weights":[-6.161841E-3,-2.4775207E-1,2.624334E-1,-1.0877487E-1,-3.706115E-1,1.3960138E-1,4.6661288E-1,-2.0391588E-1,2.14562E-2,-2.8247347E-1,-5.0133145E-1,2.5146702E-1,-2.0479193E-2,6.4905035E-1,3.6565334E-1,2.0956703E-1,-2.5753173E-1,-1.083456E0,3.8692877E-2,-2.2702035E-2,-3.2557872E-1,-4.781995E-1,-9.033105E-1,1.35381E-1,4.340712E-1,2.7478415E-1,-8.05897E-2,-2.8398502E-1,6.655653E-1,4.5584595E-1,1.2200579E-1,2.7072674E-2,-4.115163E-4,-2.1360515E-2,-4.323047E-3,-9.510623E-3,-6.593075E-2,6.091228E-3,-6.72291E-3,6.955057E-3,-4.0373586E-2,-8.185429E-3,-2.2204762E-2,-3.0334273E-2,-1.9482745E-2,-1.5275571E-2,-5.7255697E-2,2.106486E-2,-2.520714E-4,5.7473607E-2,1.8588299E-2,2.1837035E-2,-1.8114997E-2,-1.1955187E-2,3.932787E-3,-5.051741E-2,3.1761028E-2,3.473867E-2,6.1792242E-3,1.4020406E-2,3.306782E-2,-2.4312432E-3,2.7441254E-2],"categories":[],"categories_nodes":[],"categories_segments":[],"categories_sizes":[],"default_left":[0,0,0,0,0,0,0,0,0,0,0,0,0,0,0,0,0,0,0,0,0,0,1,0,0,0,0,0,0,0,0,0,0,0,0,0,0,0,0,0,0,0,0,0,0,0,0,0,0,0,0,0,0,0,0,0,0,0,0,0,0,0,0],"id":10,"left_children":[1,3,5,7,9,11,13,15,17,19,21,23,25,27,29,31,33,35,37,39,41,43,45,47,49,51,53,55,57,59,61,-1,-1,-1,-1,-1,-1,-1,-1,-1,-1,-1,-1,-1,-1,-1,-1,-1,-1,-1,-1,-1,-1,-1,-1,-1,-1,-1,-1,-1,-1,-1,-1],"loss_changes":[2.0726987E2,2.8672615E1,3.786956E1,9.798469E0,1.0137169E1,1.6942787E1,1.0219437E1,1.0182291E1,6.4143763E0,5.9850006E0,2.8968506E0,1.1745052E1,6.943994E0,3.2855911E0,8.0260315E0,3.8349566E0,1.1715284E1,8.360181E-1,4.772638E0,9.919838E0,8.731277E0,3.638939E0,2.3033543E0,1.3728221E1,9.19886E0,6.9881067E0,8.217716E0,3.4434276E0,3.0447617E0,9.478519E0,7.362163E0,0E0,0E0,0E0,0E0,0E0,0E0,0E0,0E0,0E0,0E0,0E0,0E0,0E0,0E0,0E0,0E0,0E0,0E0,0E0,0E0,0E0,0E0,0E0,0E0,0E0,0E0,0E0,0E0,0E0,0E0,0E0,0E0],"parents":[2147483647,0,0,1,1,2,2,3,3,4,4,5,5,6,6,7,7,8,8,9,9,10,10,11,11,12,12,13,13,14,14,15,15,16,16,17,17,18,18,19,19,20,20,21,21,22,22,23,23,24,24,25,25,26,26,27,27,28,28,29,29,30,30],"right_children":[2,4,6,8,10,12,14,16,18,20,22,24,26,28,30,32,34,36,38,40,42,44,46,48,50,52,54,56,58,60,62,-1,-1,-1,-1,-1,-1,-1,-1,-1,-1,-1,-1,-1,-1,-1,-1,-1,-1,-1,-1,-1,-1,-1,-1,-1,-1,-1,-1,-1,-1,-1,-1],"split_conditions":[1E0,1E0,2E0,1E0,5.1E1,1E0,4.3E1,2E0,8.4E-2,2E0,2.8E1,9E0,4.3044E2,8.066E1,1E0,4.4E1,8E0,1.16821E3,1.19E2,2.1E1,1.11446E3,2E0,4.42E-1,3E0,2.41E-1,1.3E1,9.593362E5,3.5E1,1.7E2,8E0,1.31E2,2.7072674E-2,-4.115163E-4,-2.1360515E-2,-4.323047E-3,-9.510623E-3,-6.593075E-2,6.091228E-3,-6.72291E-3,6.955057E-3,-4.0373586E-2,-8.185429E-3,-2.2204762E-2,-3.0334273E-2,-1.9482745E-2,-1.5275571E-2,-5.7255697E-2,2.106486E-2,-2.520714E-4,5.7473607E-2,1.8588299E-2,2.1837035E-2,-1.8114997E-2,-1.1955187E-2,3.932787E-3,-5.051741E-2,3.1761028E-2,3.473867E-2,6.1792242E-3,1.4020406E-2,3.306782E-2,-2.4312432E-3,2.7441254E-2],"split_indices":[0,9,0,10,11,9,11,2,12,2,5,2,3,3,9,11,2,3,7,5,3,13,12,2,12,2,6,11,7,2,7,0,0,0,0,0,0,0,0,0,0,0,0,0,0,0,0,0,0,0,0,0,0,0,0,0,0,0,0,0,0,0,0],"split_type":[0,0,0,0,0,0,0,0,0,0,0,0,0,0,0,0,0,0,0,0,0,0,0,0,0,0,0,0,0,0,0,0,0,0,0,0,0,0,0,0,0,0,0,0,0,0,0,0,0,0,0,0,0,0,0,0,0,0,0,0,0,0,0],"sum_hessian":[3.1921714E3,1.6806102E3,1.5115612E3,7.8946344E2,8.911467E2,9.4483984E2,5.6672125E2,4.5586383E2,3.335996E2,5.3415393E2,3.569928E2,5.55842E2,3.8899786E2,1.9995914E2,3.6676212E2,5.199238E1,4.0387146E2,4.1740713E0,3.2942554E2,7.623779E1,4.5791617E2,3.396379E2,1.7354898E1,3.408785E2,2.149635E2,6.519383E1,3.2380405E2,3.1960905E0,1.9676305E2,2.6703943E2,9.972267E1,2.001177E1,3.1980606E1,2.0200911E2,2.0186235E2,1.2468433E0,2.927228E0,2.2276845E2,1.0665708E2,6.388814E1,1.2349655E1,1.9456291E2,2.6335324E2,1.3617885E2,2.0345906E2,5.650041E0,1.1704857E1,1.1161575E2,2.2926276E2,1.5823698E1,1.991398E2,5.2230507E1,1.2963327E1,1.6202336E2,1.6178069E2,1.7299318E0,1.4661587E0,1.8643398E2,1.0329076E1,1.4533548E2,1.2170396E2,7.187507E1,2.7847603E1],"tree_param":{"num_deleted":"0","num_feature":"14","num_nodes":"63","size_leaf_vector":"1"}},{"base_weights":[4.601956E-3,-2.215207E-1,2.5066057E-1,-7.7288404E-2,-3.443935E-1,1.3471653E-1,4.4352472E-1,-1.8398789E-1,6.661103E-2,-3.837718E-1,-5.8504585E-2,2.4481757E-1,-2.1140778E-2,5.411447E-1,2.3312944E-1,2.1971776E-1,-2.3748347E-1,2.8474987E-2,7.27545E-1,-3.560587E-1,-7.627151E-1,6.5460585E-2,-8.952354E-2,5.58643E-1,1.8054576E-1,2.5582093E-1,-7.520443E-2,8.116731E-1,4.9685103E-1,-1.5086169E-2,3.1925213E-1,-1.0882139E-3,2.3090253E-2,-7.4783065E-3,-2.2749132E-2,2.3212817E-2,-1.1936453E-3,-3.3946276E-2,4.7403876E-2,-1.4071851E-2,-2.5036156E-2,-2.7656952E-2,-6.8444766E-2,4.216986E-3,-1.6513811E-2,3.8936596E-2,5.2015274E-3,5.589766E-3,2.3434145E-2,1.9984882E-2,-2.0726053E-2,-1.4422283E-2,2.0551435E-3,-7.621817E-3,4.478981E-2,1.0117596E-2,2.953138E-2,6.3333325E-3,-3.924141E-2,1.7350355E-2,-4.6983104E-2],"categories":[],"categories_nodes":[],"categories_segments":[],"categories_sizes":[],"default_left":[0,0,0,0,0,0,0,0,0,0,0,0,0,0,0,0,0,0,0,0,0,0,0,1,0,0,0,0,0,0,0,0,0,0,0,0,0,0,0,0,0,0,0,0,0,0,0,0,0,0,0,0,0,0,0,0,0,0,0,0,0],"id":11,"left_children":[1,3,5,7,9,11,13,15,17,19,21,23,25,27,29,31,33,35,37,39,41,-1,43,45,47,49,51,53,55,57,59,-1,-1,-1,-1,-1,-1,-1,-1,-1,-1,-1,-1,-1,-1,-1,-1,-1,-1,-1,-1,-1,-1,-1,-1,-1,-1,-1,-1,-1,-1],"loss_changes":[1.7735245E2,2.9411194E1,3.4074265E1,1.1764321E1,1.0071976E1,1.638927E1,1.1636108E1,9.549873E0,8.212071E0,8.002991E0,4.772664E0,1.1186386E1,5.9514565E0,4.275078E0,3.9223518E0,3.0485885E0,7.3666267E0,7.07946E0,6.157812E0,7.8054123E0,5.953184E0,0E0,4.5584044E0,9.388992E0,9.177945E0,6.428147E0,8.252098E0,4.4636497E0,9.217102E0,5.3544006E0,5.081502E0,0E0,0E0,0E0,0E0,0E0,0E0,0E0,0E0,0E0,0E0,0E0,0E0,0E0,0E0,0E0,0E0,0E0,0E0,0E0,0E0,0E0,0E0,0E0,0E0,0E0,0E0,0E0,0E0,0E0,0E0],"parents":[2147483647,0,0,1,1,2,2,3,3,4,4,5,5,6,6,7,7,8,8,9,9,10,10,11,11,12,12,13,13,14,14,15,15,16,16,17,17,18,18,19,19,20,20,22,22,23,23,24,24,25,25,26,26,27,27,28,28,29,29,30,30],"right_children":[2,4,6,8,10,12,14,16,18,20,22,24,26,28,30,32,34,36,38,40,42,-1,44,46,48,50,52,54,56,58,60,-1,-1,-1,-1,-1,-1,-1,-1,-1,-1,-1,-1,-1,-1,-1,-1,-1,-1,-1,-1,-1,-1,-1,-1,-1,-1,-1,-1,-1,-1],"split_conditions":[1E0,1E0,2E0,1E0,1.59E2,1E0,5.4E1,2E0,8.591473E4,2.7E1,2E0,3.5E1,4.2183E2,2E0,4.2E1,9.6E1,1.593967E4,2.7172E2,3.13E-1,5.3E1,5.26557E3,6.5460585E-2,5E1,7.32E-1,1.2E1,1.3E1,6.83545E3,1.9E1,5E0,3.385574E4,1.4896252E5,-1.0882139E-3,2.3090253E-2,-7.4783065E-3,-2.2749132E-2,2.3212817E-2,-1.1936453E-3,-3.3946276E-2,4.7403876E-2,-1.4071851E-2,-2.5036156E-2,-2.7656952E-2,-6.8444766E-2,4.216986E-3,-1.6513811E-2,3.8936596E-2,5.2015274E-3,5.589766E-3,2.3434145E-2,1.9984882E-2,-2.0726053E-2,-1.4422283E-2,2.0551435E-3,-7.621817E-3,4.478981E-2,1.0117596E-2,2.953138E-2,6.3333325E-3,-3.924141E-2,1.7350355E-2,-4.6983104E-2],"split_indices":[0,9,0,10,7,9,11,2,4,5,5,11,3,2,7,7,4,3,12,11,3,0,11,12,2,2,4,7,2,4,4,0,0,0,0,0,0,0,0,0,0,0,0,0,0,0,0,0,0,0,0,0,0,0,0,0,0,0,0,0,0],"split_type":[0,0,0,0,0,0,0,0,0,0,0,0,0,0,0,0,0,0,0,0,0,0,0,0,0,0,0,0,0,0,0,0,0,0,0,0,0,0,0,0,0,0,0,0,0,0,0,0,0,0,0,0,0,0,0,0,0,0,0,0,0],"sum_hessian":[3.185534E3,1.6600671E3,1.5254669E3,7.644078E2,8.956593E2,9.537813E2,5.716856E2,4.3877988E2,3.2562793E2,7.869258E2,1.08733536E2,5.5860187E2,3.9517947E2,3.8942618E2,1.8225941E2,5.09766E1,3.8780328E2,3.0885028E2,1.6777649E1,7.3510516E2,5.1820587E1,1.4975011E0,1.0723604E2,9.364782E1,4.6495404E2,6.3931927E1,3.3124753E2,5.2352543E1,3.3707364E2,4.716094E1,1.3509848E2,2.597582E1,2.500078E1,2.773719E2,1.1043139E2,3.2277832E1,2.7657245E2,1.9923894E0,1.4785258E1,4.8689667E2,2.4820851E2,3.9928513E1,1.1892075E1,6.264539E1,4.4590645E1,6.2619328E1,3.1028496E1,3.765064E2,8.844764E1,5.2967216E1,1.096471E1,1.1638458E2,2.1486296E2,4.1362433E0,4.82163E1,8.217292E1,2.5490073E2,4.0532135E1,6.6288037E0,1.3289297E2,2.2054982E0],"tree_param":{"num_deleted":"0","num_feature":"14","num_nodes":"61","size_leaf_vector":"1"}},{"base_weights":[4.1284934E-3,-2.0248976E-1,2.3154977E-1,-8.4772065E-2,-3.0652002E-1,3.4927732E-1,2.3324177E-2,2.8471926E-1,-1.09675504E-1,-1.4220949E-1,-3.4873796E-1,2.9838926E-1,7.123369E-1,-5.877411E-2,2.316163E-1,3.7204528E-1,-5.7698137E-1,-1.4953011E-1,1.7341948E-1,2.6532733E-1,-2.4095687E-1,-6.14689E-1,-2.9507878E-1,1.992288E-1,4.5707884E-1,8.5706806E-1,3.9420214E-1,2.3086184E-1,-1.1720172E-1,6.7524844E-1,1.5560755E-1,1.2358647E-2,5.796199E-2,2.1573888E-2,-5.6745708E-2,5.5141184E-3,-9.619106E-3,2.053609E-2,7.838497E-4,6.782415E-2,7.204169E-4,-1.0281655E-2,-5.940574E-2,-1.6419197E-2,-4.2871162E-2,-1.0780916E-2,-2.0711465E-2,1.9858297E-2,5.187815E-3,1.6546529E-2,2.828052E-2,4.4494785E-2,-2.1453172E-2,-4.1549414E-2,2.7143776E-2,-1.9143276E-2,1.8773606E-2,-7.248985E-3,3.6975935E-2,3.9210673E-2,-2.0989126E-2,1.2145007E-2,-1.7899094E-2],"categories":[],"categories_nodes":[],"categories_segments":[],"categories_sizes":[],"default_left":[0,0,0,0,0,0,0,0,0,1,0,0,1,0,0,0,0,0,0,0,0,0,0,0,0,0,0,0,0,0,0,0,0,0,0,0,0,0,0,0,0,0,0,0,0,0,0,0,0,0,0,0,0,0,0,0,0,0,0,0,0,0,0],"id":12,"left_children":[1,3,5,7,9,11,13,15,17,19,21,23,25,27,29,31,33,35,37,39,41,43,45,47,49,51,53,55,57,59,61,-1,-1,-1,-1,-1,-1,-1,-1,-1,-1,-1,-1,-1,-1,-1,-1,-1,-1,-1,-1,-1,-1,-1,-1,-1,-1,-1,-1,-1,-1,-1,-1],"loss_changes":[1.4993962E2,2.0448952E1,3.722808E1,7.261416E0,6.1047134E0,1.7713905E1,9.413679E0,3.9690723E0,8.339651E0,7.4302554E0,9.881523E0,1.3327232E1,5.121128E0,6.713002E0,5.142125E0,4.226386E0,3.2934E0,7.2185917E0,3.414811E0,9.885605E0,4.702915E0,7.881649E0,5.484169E0,9.909676E0,4.2919617E0,3.7863388E0,7.5411854E0,6.059725E0,7.9469447E0,3.0093765E0,6.1012044E0,0E0,0E0,0E0,0E0,0E0,0E0,0E0,0E0,0E0,0E0,0E0,0E0,0E0,0E0,0E0,0E0,0E0,0E0,0E0,0E0,0E0,0E0,0E0,0E0,0E0,0E0,0E0,0E0,0E0,0E0,0E0,0E0],"parents":[2147483647,0,0,1,1,2,2,3,3,4,4,5,5,6,6,7,7,8,8,9,9,10,10,11,11,12,12,13,13,14,14,15,15,16,16,17,17,18,18,19,19,20,20,21,21,22,22,23,23,24,24,25,25,26,26,27,27,28,28,29,29,30,30],"right_children":[2,4,6,8,10,12,14,16,18,20,22,24,26,28,30,32,34,36,38,40,42,44,46,48,50,52,54,56,58,60,62,-1,-1,-1,-1,-1,-1,-1,-1,-1,-1,-1,-1,-1,-1,-1,-1,-1,-1,-1,-1,-1,-1,-1,-1,-1,-1,-1,-1,-1,-1,-1,-1],"split_conditions":[1E0,1E0,1E0,2.1159E2,3E0,1E0,2E0,3.315326E4,2.3E1,2.81E-1,5E0,9E0,6.69E-1,1.68458E3,2E0,1.4E1,3.49E-1,2E0,1.22852E3,1.18465E3,3.3E1,6.22E-1,1.1E1,3E0,1E0,3.1E1,7.08E-1,4.9603E2,3.3E1,1.0220812E5,3.228643E4,1.2358647E-2,5.796199E-2,2.1573888E-2,-5.6745708E-2,5.5141184E-3,-9.619106E-3,2.053609E-2,7.838497E-4,6.782415E-2,7.204169E-4,-1.0281655E-2,-5.940574E-2,-1.6419197E-2,-4.2871162E-2,-1.0780916E-2,-2.0711465E-2,1.9858297E-2,5.187815E-3,1.6546529E-2,2.828052E-2,4.4494785E-2,-2.1453172E-2,-4.1549414E-2,2.7143776E-2,-1.9143276E-2,1.8773606E-2,-7.248985E-3,3.6975935E-2,3.9210673E-2,-2.0989126E-2,1.2145007E-2,-1.7899094E-2],"split_indices":[0,9,9,3,2,1,0,6,5,12,2,2,12,4,2,2,12,2,3,3,5,12,2,2,10,5,12,4,5,4,4,0,0,0,0,0,0,0,0,0,0,0,0,0,0,0,0,0,0,0,0,0,0,0,0,0,0,0,0,0,0,0,0],"split_type":[0,0,0,0,0,0,0,0,0,0,0,0,0,0,0,0,0,0,0,0,0,0,0,0,0,0,0,0,0,0,0,0,0,0,0,0,0,0,0,0,0,0,0,0,0,0,0,0,0,0,0,0,0,0,0,0,0,0,0,0,0,0,0],"sum_hessian":[3.1889275E3,1.670942E3,1.5179854E3,7.847528E2,8.861892E2,9.6928766E2,5.4869775E2,4.8893223E1,7.3585956E2,1.8204518E2,7.04144E2,8.5172754E2,1.1756013E2,3.9408652E2,1.5461127E2,4.4910202E1,3.9830227E0,6.454621E2,9.039747E1,3.5177685E1,1.468675E2,1.16463E2,5.87681E2,5.255699E2,3.2615765E2,7.963651E1,3.792361E1,6.565784E1,3.2842868E2,2.146207E1,1.331492E2,3.9895576E1,5.014626E0,1.4994421E0,2.4835806E0,9.116337E1,5.5429877E2,3.545558E1,5.4941887E1,5.753172E0,2.9424513E1,1.4276042E2,4.107072E0,5.4515182E1,6.1947815E1,3.5424658E2,2.3343443E2,1.6998685E2,3.55583E2,1.5270958E2,1.7344807E2,7.795486E1,1.6816571E0,3.6072845E0,3.4316326E1,1.2206362E1,5.3451473E1,3.1891895E2,9.509733E0,1.9777847E1,1.6842238E0,1.1425655E2,1.889264E1],"tree_param":{"num_deleted":"0","num_feature":"14","num_nodes":"63","size_leaf_vector":"1"}},{"base_weights":[-3.6379804E-3,-2.021909E-1,2.1871644E-1,-9.552722E-2,-2.9648367E-1,9.980035E-2,4.1674608E-1,-1.7497413E-1,2.6338298E-2,-2.7181566E-1,-6.263195E-1,1.968875E-1,-3.6929473E-2,4.719226E-1,1.1135282E-1,-9.212459E-2,-4.8878065E-1,1.0068776E-2,1.13735E0,-3.9719675E-2,-3.08654E-1,-4.280235E-1,-1.2273904E0,9.093993E-2,3.6864188E-1,-1.3939857E-1,8.358826E-2,3.9332068E-1,6.081896E-1,4.9334538E-1,-9.076956E-2,-8.798017E-3,1.834822E-2,1.1754783E-2,-3.1098023E-2,8.949831E-3,-4.041321E-3,7.0629805E-2,1.1589105E-2,-1.4302704E-2,1.111413E-2,-2.1298265E-2,-1.1553167E-2,-4.0315278E-2,-9.571516E-3,-3.7348934E-2,-7.009722E-2,1.7530704E-2,-1.8189943E-3,2.4270447E-2,-2.933067E-5,1.1243552E-2,-1.0455159E-2,2.285862E-2,8.7964576E-4,2.5674552E-2,1.0368236E-2,5.1340666E-2,2.4873117E-2,2.9997474E-2,-4.799734E-2,-1.4008655E-2,2.8453976E-2],"categories":[],"categories_nodes":[],"categories_segments":[],"categories_sizes":[],"default_left":[0,0,0,0,0,0,0,0,0,0,0,0,0,0,1,0,0,0,0,0,0,0,0,0,1,0,0,0,0,0,0,0,0,0,0,0,0,0,0,0,0,0,0,0,0,0,0,0,0,0,0,0,0,0,0,0,0,0,0,0,0,0,0],"id":13,"left_children":[1,3,5,7,9,11,13,15,17,19,21,23,25,27,29,31,33,35,37,39,41,43,45,47,49,51,53,55,57,59,61,-1,-1,-1,-1,-1,-1,-1,-1,-1,-1,-1,-1,-1,-1,-1,-1,-1,-1,-1,-1,-1,-1,-1,-1,-1,-1,-1,-1,-1,-1,-1,-1],"loss_changes":[1.4039235E2,1.6867264E1,3.5283577E1,7.650437E0,7.080681E0,1.2466539E1,9.425964E0,1.2387168E1,5.6376066E0,7.0921974E0,6.7744465E0,9.956774E0,4.8348436E0,4.8604126E0,6.791835E0,1.4672281E1,9.75268E0,4.7594147E0,7.946205E-1,7.483586E0,6.4275208E0,4.104699E0,1.8191528E-1,1.1282857E1,9.016579E0,5.416317E0,4.4322968E0,6.704212E0,7.4776726E0,5.2847595E0,7.4072323E0,0E0,0E0,0E0,0E0,0E0,0E0,0E0,0E0,0E0,0E0,0E0,0E0,0E0,0E0,0E0,0E0,0E0,0E0,0E0,0E0,0E0,0E0,0E0,0E0,0E0,0E0,0E0,0E0,0E0,0E0,0E0,0E0],"parents":[2147483647,0,0,1,1,2,2,3,3,4,4,5,5,6,6,7,7,8,8,9,9,10,10,11,11,12,12,13,13,14,14,15,15,16,16,17,17,18,18,19,19,20,20,21,21,22,22,23,23,24,24,25,25,26,26,27,27,28,28,29,29,30,30],"right_children":[2,4,6,8,10,12,14,16,18,20,22,24,26,28,30,32,34,36,38,40,42,44,46,48,50,52,54,56,58,60,62,-1,-1,-1,-1,-1,-1,-1,-1,-1,-1,-1,-1,-1,-1,-1,-1,-1,-1,-1,-1,-1,-1,-1,-1,-1,-1,-1,-1,-1,-1,-1,-1],"split_conditions":[1E0,1E0,2E0,9E0,2.7E1,1E0,6.1E1,7E0,9.030924E4,2E0,5.37923E3,9E0,6.8E-1,1.4E1,4.19E-1,6E0,4.21743E3,5.3466E2,2.404098E4,1E0,2E0,3E1,1E0,3E0,7.73E-1,4.3044E2,2E0,9E0,3.4E1,9.030924E4,8.27E-1,-8.798017E-3,1.834822E-2,1.1754783E-2,-3.1098023E-2,8.949831E-3,-4.041321E-3,7.0629805E-2,1.1589105E-2,-1.4302704E-2,1.111413E-2,-2.1298265E-2,-1.1553167E-2,-4.0315278E-2,-9.571516E-3,-3.7348934E-2,-7.009722E-2,1.7530704E-2,-1.8189943E-3,2.4270447E-2,-2.933067E-5,1.1243552E-2,-1.0455159E-2,2.285862E-2,8.7964576E-4,2.5674552E-2,1.0368236E-2,5.1340666E-2,2.4873117E-2,2.9997474E-2,-4.799734E-2,-1.4008655E-2,2.8453976E-2],"split_indices":[0,9,0,2,5,9,11,2,4,2,3,2,12,5,12,2,4,3,3,2,13,5,13,2,12,3,2,5,11,4,12,0,0,0,0,0,0,0,0,0,0,0,0,0,0,0,0,0,0,0,0,0,0,0,0,0,0,0,0,0,0,0,0],"split_type":[0,0,0,0,0,0,0,0,0,0,0,0,0,0,0,0,0,0,0,0,0,0,0,0,0,0,0,0,0,0,0,0,0,0,0,0,0,0,0,0,0,0,0,0,0,0,0,0,0,0,0,0,0,0,0,0,0,0,0,0,0,0,0],"sum_hessian":[3.177956E3,1.6788795E3,1.4990765E3,7.8870825E2,8.9017126E2,9.3757184E2,5.6150464E2,4.771848E2,3.1152347E2,8.299262E2,6.0245094E1,5.480093E2,3.8956256E2,4.75118E2,8.6386604E1,3.785386E2,9.8646194E1,3.0802188E2,3.5015728E0,1.1396718E2,7.1595905E2,4.6587704E1,1.3657392E1,3.3988126E2,2.0812802E2,2.1046228E2,1.791003E2,3.037782E2,1.7133983E2,2.9393946E1,5.6992657E1,3.2060803E2,5.793057E1,1.5209931E1,8.3436264E1,1.0741776E2,2.0060414E2,2.2559721E0,1.2456006E0,5.869261E1,5.5274563E1,2.8323663E2,4.3272238E2,1.699958E1,2.9588121E1,5.046806E0,8.610586E0,1.112429E2,2.2863838E2,1.5788336E2,5.0244656E1,3.3446735E1,1.7701553E2,2.5998959E1,1.5310133E2,1.8345967E2,1.2031852E2,3.4109524E1,1.372303E2,2.7932201E1,1.461746E0,4.472901E1,1.2263646E1],"tree_param":{"num_deleted":"0","num_feature":"14","num_nodes":"63","size_leaf_vector":"1"}},{"base_weights":[-6.773525E-4,-1.947026E-1,2.130457E-1,-7.0550285E-2,-3.053325E-1,1.0738838E-1,3.918927E-1,-1.5859863E-1,4.990384E-2,-2.8179994E-1,-6.210736E-1,2.0791793E-1,-3.4041166E-2,4.5531297E-1,2.2182463E-1,-8.643791E-2,-3.9074823E-1,-1.0472189E0,6.68609E-2,-9.460252E-2,-3.180014E-1,-2.7969566E-1,-9.2726094E-1,1.113308E-1,3.6181617E-1,-1.6653508E-1,7.861875E-2,2.9494518E-1,5.674537E-1,1.1183138E-1,5.243363E-1,2.4224348E-2,-5.7411785E-3,-3.3437327E-2,-9.406441E-3,-9.547941E-3,-6.36099E-2,1.2539044E-3,1.7512614E-2,1.0960053E-2,-1.2750389E-2,-3.6640365E-3,-1.7927023E-2,-4.0128313E-2,1.34456875E-2,-2.1887513E-2,-5.6580015E-2,1.9544287E-2,-1.3870463E-3,2.3485808E-2,8.574083E-4,1.9648006E-2,-1.460311E-2,2.5223733E-3,5.4751087E-2,5.9012244E-3,2.807491E-2,3.8648244E-2,2.1695547E-2,9.899136E-3,-1.8159417E-2,3.710222E-2,-2.5772431E-3],"categories":[],"categories_nodes":[],"categories_segments":[],"categories_sizes":[],"default_left":[0,0,0,0,0,0,0,0,0,0,0,0,0,0,0,0,0,0,0,0,0,0,0,0,1,0,0,0,0,0,0,0,0,0,0,0,0,0,0,0,0,0,0,0,0,0,0,0,0,0,0,0,0,0,0,0,0,0,0,0,0,0,0],"id":14,"left_children":[1,3,5,7,9,11,13,15,17,19,21,23,25,27,29,31,33,35,37,39,41,43,45,47,49,51,53,55,57,59,61,-1,-1,-1,-1,-1,-1,-1,-1,-1,-1,-1,-1,-1,-1,-1,-1,-1,-1,-1,-1,-1,-1,-1,-1,-1,-1,-1,-1,-1,-1,-1,-1],"loss_changes":[1.3215451E2,2.2921898E1,2.861422E1,8.369688E0,6.386032E0,1.3580603E1,5.9692917E0,7.6004124E0,6.278169E0,5.5513535E0,6.0558186E0,8.256685E0,5.9466586E0,7.1877365E0,5.092873E0,5.7105227E0,5.9451656E0,7.470732E-1,3.8935132E0,6.8455744E0,6.8162613E0,8.821087E0,2.6473083E0,1.3399874E1,7.979759E0,1.2966949E1,6.1156983E0,7.9688835E0,6.240326E0,4.7702856E0,5.1799774E0,0E0,0E0,0E0,0E0,0E0,0E0,0E0,0E0,0E0,0E0,0E0,0E0,0E0,0E0,0E0,0E0,0E0,0E0,0E0,0E0,0E0,0E0,0E0,0E0,0E0,0E0,0E0,0E0,0E0,0E0,0E0,0E0],"parents":[2147483647,0,0,1,1,2,2,3,3,4,4,5,5,6,6,7,7,8,8,9,9,10,10,11,11,12,12,13,13,14,14,15,15,16,16,17,17,18,18,19,19,20,20,21,21,22,22,23,23,24,24,25,25,26,26,27,27,28,28,29,29,30,30],"right_children":[2,4,6,8,10,12,14,16,18,20,22,24,26,28,30,32,34,36,38,40,42,44,46,48,50,52,54,56,58,60,62,-1,-1,-1,-1,-1,-1,-1,-1,-1,-1,-1,-1,-1,-1,-1,-1,-1,-1,-1,-1,-1,-1,-1,-1,-1,-1,-1,-1,-1,-1,-1,-1],"split_conditions":[1E0,1E0,2E0,1E0,2.7E1,1E0,1E0,5.034991E5,8.4E-2,3.66E-1,4.93326E5,9E0,6.14E-1,6E0,1.31E2,1.4586E2,9.046838E5,1.16821E3,2.3E1,6.599309E4,2E0,1.8016877E5,1E0,3E0,7.73E-1,1.68458E3,1.2505916E5,1.4E1,9E0,1.09E2,1.66E2,2.4224348E-2,-5.7411785E-3,-3.3437327E-2,-9.406441E-3,-9.547941E-3,-6.36099E-2,1.2539044E-3,1.7512614E-2,1.0960053E-2,-1.2750389E-2,-3.6640365E-3,-1.7927023E-2,-4.0128313E-2,1.34456875E-2,-2.1887513E-2,-5.6580015E-2,1.9544287E-2,-1.3870463E-3,2.3485808E-2,8.574083E-4,1.9648006E-2,-1.460311E-2,2.5223733E-3,5.4751087E-2,5.9012244E-3,2.807491E-2,3.8648244E-2,2.1695547E-2,9.899136E-3,-1.8159417E-2,3.710222E-2,-2.5772431E-3],"split_indices":[0,9,0,10,5,9,9,6,12,12,6,2,12,2,7,3,6,3,5,6,2,6,13,2,12,4,4,5,5,7,7,0,0,0,0,0,0,0,0,0,0,0,0,0,0,0,0,0,0,0,0,0,0,0,0,0,0,0,0,0,0,0,0],"split_type":[0,0,0,0,0,0,0,0,0,0,0,0,0,0,0,0,0,0,0,0,0,0,0,0,0,0,0,0,0,0,0,0,0,0,0,0,0,0,0,0,0,0,0,0,0,0,0,0,0,0,0,0,0,0,0,0,0,0,0,0,0,0,0],"sum_hessian":[3.184929E3,1.669441E3,1.5154878E3,7.874161E2,8.8202496E2,9.536821E2,5.618057E2,4.547158E2,3.327003E2,8.2260754E2,5.9417435E1,5.5717E2,3.9651218E2,4.0798596E2,1.5381976E2,3.4793652E2,1.0677927E2,4.1391616E0,3.2856113E2,1.3388776E2,6.887198E2,2.8999004E1,3.0418428E1,3.4338416E2,2.1378581E2,1.8199657E2,2.1451561E2,1.6938522E2,2.3860074E2,1.13808624E2,4.001114E1,1.5718572E1,3.3221796E2,4.404629E1,6.2732975E1,1.2459431E0,2.8932185E0,2.8729175E2,4.1269382E1,4.5164715E1,8.8723045E1,9.827492E1,5.904448E2,1.4610791E1,1.4388213E1,9.88365E0,2.0534779E1,1.1347393E2,2.2991022E2,1.6253929E2,5.1246517E1,3.2959614E1,1.4903694E2,2.0975163E2,4.763979E0,1.0267739E2,6.670783E1,9.209146E1,1.4650928E2,9.683032E1,1.6978294E1,2.8825365E1,1.1185773E1],"tree_param":{"num_deleted":"0","num_feature":"14","num_nodes":"63","size_leaf_vector":"1"}},{"base_weights":[6.3607465E-3,-1.8587723E-1,2.2071196E-1,-8.305981E-2,-2.7654567E-1,1.1667137E-1,3.970465E-1,-5.7501193E-2,-5.426278E-1,-9.644324E-2,-3.2170492E-1,2.1714427E-1,-2.3872258E-2,5.6259316E-1,3.056612E-1,3.719092E-1,-7.769242E-2,-2.5295904E-1,-1.0987787E0,2.4703787E-1,-2.4339321E-1,-2.3660861E-1,-4.2168644E-1,2.556048E-1,-4.2233506E-1,1.3686378E-1,-1.0926771E-1,5.089516E-1,8.331604E-1,1.2989806E-1,4.2947227E-1,3.9660595E-2,5.6823675E-4,-4.739353E-3,2.3353793E-2,-4.3978155E-2,6.4407634E-3,2.3978974E-3,-6.7743145E-2,1.8181479E-2,-2.750857E-2,-5.9794844E-4,-1.7678931E-2,-2.9714007E-3,-1.7229026E-2,-3.0891448E-2,-1.4175372E-2,9.361676E-3,2.607795E-2,1.3340478E-2,-4.5144245E-2,-1.4054385E-2,1.4278456E-2,-6.548716E-2,-3.9107143E-3,4.4083647E-2,2.2135902E-2,3.269067E-2,6.108095E-2,1.8792149E-2,-4.2425115E-3,7.026385E-3,2.5152177E-2],"categories":[],"categories_nodes":[],"categories_segments":[],"categories_sizes":[],"default_left":[0,0,0,0,0,0,0,0,1,0,0,0,0,0,0,0,0,0,0,0,0,1,0,0,0,0,0,0,0,0,0,0,0,0,0,0,0,0,0,0,0,0,0,0,0,0,0,0,0,0,0,0,0,0,0,0,0,0,0,0,0,0,0],"id":15,"left_children":[1,3,5,7,9,11,13,15,17,19,21,23,25,27,29,31,33,35,37,39,41,43,45,47,49,51,53,55,57,59,61,-1,-1,-1,-1,-1,-1,-1,-1,-1,-1,-1,-1,-1,-1,-1,-1,-1,-1,-1,-1,-1,-1,-1,-1,-1,-1,-1,-1,-1,-1,-1,-1],"loss_changes":[1.308698E2,1.5585918E1,2.750193E1,9.2016E0,7.202057E0,1.3360756E1,8.251472E0,6.4947844E0,6.3744516E0,9.131097E0,5.946083E0,1.3675041E1,5.4392548E0,2.4329681E0,7.7988243E0,5.1044583E0,6.6849666E0,6.919358E0,4.1300793E0,5.2512884E0,3.2182693E0,7.366892E0,8.6453705E0,9.375191E0,1.072953E1,8.6293545E0,9.538944E0,3.72863E0,1.3609982E0,7.986408E0,4.4218674E0,0E0,0E0,0E0,0E0,0E0,0E0,0E0,0E0,0E0,0E0,0E0,0E0,0E0,0E0,0E0,0E0,0E0,0E0,0E0,0E0,0E0,0E0,0E0,0E0,0E0,0E0,0E0,0E0,0E0,0E0,0E0,0E0],"parents":[2147483647,0,0,1,1,2,2,3,3,4,4,5,5,6,6,7,7,8,8,9,9,10,10,11,11,12,12,13,13,14,14,15,15,16,16,17,17,18,18,19,19,20,20,21,21,22,22,23,23,24,24,25,25,26,26,27,27,28,28,29,29,30,30],"right_children":[2,4,6,8,10,12,14,16,18,20,22,24,26,28,30,32,34,36,38,40,42,44,46,48,50,52,54,56,58,60,62,-1,-1,-1,-1,-1,-1,-1,-1,-1,-1,-1,-1,-1,-1,-1,-1,-1,-1,-1,-1,-1,-1,-1,-1,-1,-1,-1,-1,-1,-1,-1,-1],"split_conditions":[1E0,1E0,2E0,6.8E1,3E0,1E0,4.3E1,2.4E1,7.16E-1,1E0,4.9E1,7.797219E4,6.2E1,1.1606678E7,6E0,6.54899E3,1.2505916E5,1.53672E3,2.83034E4,1.5213431E6,4.1E1,4.7E-1,2E0,1.2E1,3E0,4E0,1.41E-1,2.8E1,1.39E2,3E0,3.3E1,3.9660595E-2,5.6823675E-4,-4.739353E-3,2.3353793E-2,-4.3978155E-2,6.4407634E-3,2.3978974E-3,-6.7743145E-2,1.8181479E-2,-2.750857E-2,-5.9794844E-4,-1.7678931E-2,-2.9714007E-3,-1.7229026E-2,-3.0891448E-2,-1.4175372E-2,9.361676E-3,2.607795E-2,1.3340478E-2,-4.5144245E-2,-1.4054385E-2,1.4278456E-2,-6.548716E-2,-3.9107143E-3,4.4083647E-2,2.2135902E-2,3.269067E-2,6.108095E-2,1.8792149E-2,-4.2425115E-3,7.026385E-3,2.5152177E-2],"split_indices":[0,9,0,11,2,9,11,11,12,13,11,4,7,6,2,4,4,3,6,6,11,12,13,2,2,2,12,7,7,2,7,0,0,0,0,0,0,0,0,0,0,0,0,0,0,0,0,0,0,0,0,0,0,0,0,0,0,0,0,0,0,0,0],"split_type":[0,0,0,0,0,0,0,0,0,0,0,0,0,0,0,0,0,0,0,0,0,0,0,0,0,0,0,0,0,0,0,0,0,0,0,0,0,0,0,0,0,0,0,0,0,0,0,0,0,0,0,0,0,0,0,0,0,0,0,0,0,0,0],"sum_hessian":[3.173959E3,1.6733608E3,1.5005981E3,7.850432E2,8.883176E2,9.4480664E2,5.5579144E2,7.447495E2,4.0293713E1,1.7871376E2,7.096039E2,5.506259E2,3.941807E2,1.9584937E2,3.599421E2,3.2663784E1,7.1208575E2,2.745088E1,1.2842832E1,5.3344692E1,1.2536907E2,3.851561E2,3.2444778E2,5.1995435E2,3.0671606E1,1.3655211E2,2.576286E2,1.658497E2,2.999966E1,1.496074E2,2.103347E2,1.4509332E1,1.8154451E1,6.9122144E2,2.086428E1,9.899312E0,1.7551569E1,2.4928145E0,1.0350017E1,4.701293E1,6.3317604E0,4.0793873E1,8.45752E1,1.4642494E2,2.3873114E2,1.3266338E2,1.9178442E2,4.149765E2,1.0497784E2,1.2783659E1,1.7887947E1,3.560117E1,1.00950935E2,5.4579005E0,2.521707E2,2.3167244E1,1.4268246E2,2.2359587E1,7.6400743E0,6.9388565E1,8.021885E1,4.3277245E1,1.6705745E2],"tree_param":{"num_deleted":"0","num_feature":"14","num_nodes":"63","size_leaf_vector":"1"}},{"base_weights":[1.0343127E-2,-1.7556182E-1,2.1587026E-1,-6.9983E-2,-2.6823434E-1,3.1770718E-1,3.5337016E-2,-1.5443097E-1,4.7466435E-2,-1.8942587E-1,-3.8805622E-1,2.772627E-1,6.1738974E-1,1.5230146E-1,-8.965338E-2,4.6238792E-1,-1.8072884E-1,2.8307246E-2,5.4011554E-1,-2.4218312E-1,2.621434E-2,-3.7224916E-1,-9.31904E-1,1.8473701E-1,3.8637364E-1,5.4309976E-1,6.2184926E-2,1.3983497E-1,6.3455686E-2,8.582448E-2,-2.3960893E-1,4.6917714E-2,2.7676445E-4,8.607218E-3,-1.1292203E-2,3.6491544E-3,-1.3258534E-2,-1.1100879E-2,5.0508644E-2,-1.5809504E-2,-6.955882E-3,4.618809E-3,-3.4086693E-2,-2.4226978E-2,-1.53792715E-2,-6.9829808E-3,-5.2882243E-2,2.0261277E-2,2.823538E-3,2.5685072E-2,1.2216224E-2,3.6199193E-2,1.1562939E-2,2.0208573E-2,4.6063317E-3,-3.504732E-3,3.682948E-2,2.7182242E-2,-1.6972607E-2],"categories":[],"categories_nodes":[],"categories_segments":[],"categories_sizes":[],"default_left":[0,0,0,0,0,0,0,0,0,0,0,0,0,0,0,0,0,0,0,0,0,0,0,0,0,0,0,0,0,0,0,0,0,0,0,0,0,0,0,0,0,0,0,0,0,0,0,0,0,0,0,0,0,0,0,0,0,0,0],"id":16,"left_children":[1,3,5,7,9,11,13,15,17,19,21,23,25,27,29,31,33,35,37,39,41,43,45,47,49,51,-1,53,-1,55,57,-1,-1,-1,-1,-1,-1,-1,-1,-1,-1,-1,-1,-1,-1,-1,-1,-1,-1,-1,-1,-1,-1,-1,-1,-1,-1,-1,-1],"loss_changes":[1.2171659E2,1.6347061E1,2.780384E1,7.775815E0,8.334793E0,1.1551338E1,8.007013E0,7.4782305E0,3.084144E0,6.1394196E0,2.6819725E0,8.549965E0,4.637642E0,3.7601647E0,6.9922247E0,4.1093493E0,7.0109777E0,4.1774397E0,4.6081734E0,3.260477E0,5.068637E0,2.349121E0,7.773628E-1,1.3100283E1,6.945526E0,5.690834E0,0E0,3.5042253E0,0E0,1.2513601E1,1.1377208E1,0E0,0E0,0E0,0E0,0E0,0E0,0E0,0E0,0E0,0E0,0E0,0E0,0E0,0E0,0E0,0E0,0E0,0E0,0E0,0E0,0E0,0E0,0E0,0E0,0E0,0E0,0E0,0E0],"parents":[2147483647,0,0,1,1,2,2,3,3,4,4,5,5,6,6,7,7,8,8,9,9,10,10,11,11,12,12,13,13,14,14,15,15,16,16,17,17,18,18,19,19,20,20,21,21,22,22,23,23,24,24,25,25,27,27,29,29,30,30],"right_children":[2,4,6,8,10,12,14,16,18,20,22,24,26,28,30,32,34,36,38,40,42,44,46,48,50,52,-1,54,-1,56,58,-1,-1,-1,-1,-1,-1,-1,-1,-1,-1,-1,-1,-1,-1,-1,-1,-1,-1,-1,-1,-1,-1,-1,-1,-1,-1,-1,-1],"split_conditions":[1E0,1E0,1E0,1E0,5.1E1,1E0,4.8E1,2.4E1,2.8855968E6,1.48E2,3.1899988E6,8E0,6.205174E4,2.425831E5,7E0,6.45512E3,2E0,3.992023E4,4.4E1,1E0,6.205174E4,5.6E1,5.4E1,3E0,4.8E1,3.1899988E6,6.2184926E-2,2.9E1,6.3455686E-2,6E0,2.65E2,4.6917714E-2,2.7676445E-4,8.607218E-3,-1.1292203E-2,3.6491544E-3,-1.3258534E-2,-1.1100879E-2,5.0508644E-2,-1.5809504E-2,-6.955882E-3,4.618809E-3,-3.4086693E-2,-2.4226978E-2,-1.53792715E-2,-6.9829808E-3,-5.2882243E-2,2.0261277E-2,2.823538E-3,2.5685072E-2,1.2216224E-2,3.6199193E-2,1.1562939E-2,2.0208573E-2,4.6063317E-3,-3.504732E-3,3.682948E-2,2.7182242E-2,-1.6972607E-2],"split_indices":[0,9,9,10,11,1,11,11,6,7,6,2,4,4,2,4,2,4,11,10,4,11,11,2,11,6,0,7,0,2,3,0,0,0,0,0,0,0,0,0,0,0,0,0,0,0,0,0,0,0,0,0,0,0,0,0,0,0,0],"split_type":[0,0,0,0,0,0,0,0,0,0,0,0,0,0,0,0,0,0,0,0,0,0,0,0,0,0,0,0,0,0,0,0,0,0,0,0,0,0,0,0,0,0,0,0,0,0,0,0,0,0,0,0,0,0,0,0,0,0,0],"sum_hessian":[3.1835967E3,1.6716705E3,1.5119261E3,7.822423E2,8.894282E2,9.661636E2,5.4576263E2,4.5486932E2,3.2737302E2,5.38096E2,3.5133218E2,8.529734E2,1.1319017E2,2.8182025E2,2.6394235E2,1.7922096E1,4.369472E2,3.161359E2,1.1237107E1,4.3222687E2,1.0586916E2,3.4304596E2,8.286246E0,4.6302386E2,3.8994952E2,1.0285688E2,1.0333291E1,2.7982193E2,1.9983228E0,1.2181832E2,1.4212404E2,8.261255E0,9.660841E0,4.9212364E1,3.8773486E2,2.7502106E2,4.1114853E1,4.4880433E0,6.749064E0,2.5037518E2,1.8185168E2,9.761591E1,8.253253E0,1.22985245E2,2.200607E2,1.424119E0,6.862127E0,1.694984E2,2.9352548E2,2.0425037E2,1.8569916E2,6.426068E1,3.85962E1,4.1639454E1,2.3818248E2,9.8992615E1,2.2825705E1,1.5566032E1,1.2655801E2],"tree_param":{"num_deleted":"0","num_feature":"14","num_nodes":"59","size_leaf_vector":"1"}},{"base_weights":[7.29495E-3,-1.578951E-1,1.9021687E-1,-6.2358815E-2,-2.4313667E-1,9.743181E-2,3.4866154E-1,3.3978468E-1,-7.957111E-2,-1.6558444E-1,-3.6060682E-1,-4.300524E-2,2.3965448E-1,5.4256654E-1,2.4350986E-1,-7.5700873E-1,5.1965696E-1,-1.5677059E-1,2.6210953E-2,-6.613876E-2,-2.7289876E-1,-2.9789928E-1,-5.565757E-1,5.7916418E-2,-1.8847059E-1,2.7892444E-1,-3.3241543E-1,-3.8480195E-1,5.5742496E-1,3.149142E-1,5.5957485E-2,-5.7728E-2,1.1856935E-2,5.1378865E-2,6.980657E-3,-4.161026E-3,-1.593946E-2,1.5421638E-4,3.1586085E-2,1.7308762E-2,-5.5519314E-3,-1.5128612E-2,3.8021576E-2,-1.6660463E-2,3.7282824E-3,-4.4536892E-2,-2.0251824E-2,8.605312E-4,2.845264E-2,4.1693088E-2,-1.1049546E-2,1.5706426E-2,-1.0956047E-2,-2.7189313E-2,2.3401774E-2,-4.743509E-2,2.153253E-2,5.4229837E-2,2.4767505E-2,-1.8736001E-2,1.7314494E-2,-6.5511204E-3,2.9089633E-2],"categories":[],"categories_nodes":[],"categories_segments":[],"categories_sizes":[],"default_left":[0,0,0,0,0,0,0,0,0,0,0,0,0,0,0,0,0,0,0,0,0,0,0,0,0,0,0,0,0,0,0,0,0,0,0,0,0,0,0,0,0,0,0,0,0,0,0,0,0,0,0,0,0,0,0,0,0,0,0,0,0,0,0],"id":17,"left_children":[1,3,5,7,9,11,13,15,17,19,21,23,25,27,29,31,33,35,37,39,41,43,45,47,49,51,53,55,57,59,61,-1,-1,-1,-1,-1,-1,-1,-1,-1,-1,-1,-1,-1,-1,-1,-1,-1,-1,-1,-1,-1,-1,-1,-1,-1,-1,-1,-1,-1,-1,-1,-1],"loss_changes":[9.5587166E1,1.3521847E1,2.2034145E1,5.461713E0,7.940056E0,1.8946945E1,1.1163712E1,6.7885046E0,6.159359E0,5.6464005E0,4.11491E0,7.026639E0,1.0678431E1,2.8873863E0,4.817232E0,2.2397192E0,5.3467155E0,5.1676216E0,4.4631276E0,5.1629705E0,8.0480995E0,3.523878E0,3.8570557E0,5.876462E0,6.7000117E0,7.8094177E0,5.452861E0,2.0872095E0,5.7238235E0,5.7828293E0,9.9834385E0,0E0,0E0,0E0,0E0,0E0,0E0,0E0,0E0,0E0,0E0,0E0,0E0,0E0,0E0,0E0,0E0,0E0,0E0,0E0,0E0,0E0,0E0,0E0,0E0,0E0,0E0,0E0,0E0,0E0,0E0,0E0,0E0],"parents":[2147483647,0,0,1,1,2,2,3,3,4,4,5,5,6,6,7,7,8,8,9,9,10,10,11,11,12,12,13,13,14,14,15,15,16,16,17,17,18,18,19,19,20,20,21,21,22,22,23,23,24,24,25,25,26,26,27,27,28,28,29,29,30,30],"right_children":[2,4,6,8,10,12,14,16,18,20,22,24,26,28,30,32,34,36,38,40,42,44,46,48,50,52,54,56,58,60,62,-1,-1,-1,-1,-1,-1,-1,-1,-1,-1,-1,-1,-1,-1,-1,-1,-1,-1,-1,-1,-1,-1,-1,-1,-1,-1,-1,-1,-1,-1,-1,-1],"split_conditions":[1E0,1E0,2E0,2.4E1,5.1E1,1E0,4.3E1,4E0,1E0,1.90716E3,4.7708888E5,1E0,1.7E2,8.066E1,1E0,9.3E1,9.7809E2,3.6715447E5,1.0857967E5,2.7E1,1.76E2,3.313422E5,7.769693E5,1.67E2,2.83034E4,7.797219E4,3.992023E4,3.5E1,1.26029E3,3E0,1.31E2,-5.7728E-2,1.1856935E-2,5.1378865E-2,6.980657E-3,-4.161026E-3,-1.593946E-2,1.5421638E-4,3.1586085E-2,1.7308762E-2,-5.5519314E-3,-1.5128612E-2,3.8021576E-2,-1.6660463E-2,3.7282824E-3,-4.4536892E-2,-2.0251824E-2,8.605312E-4,2.845264E-2,4.1693088E-2,-1.1049546E-2,1.5706426E-2,-1.0956047E-2,-2.7189313E-2,2.3401774E-2,-4.743509E-2,2.153253E-2,5.4229837E-2,2.4767505E-2,-1.8736001E-2,1.7314494E-2,-6.5511204E-3,2.9089633E-2],"split_indices":[0,9,0,11,11,10,11,5,10,3,6,9,7,3,9,7,3,6,4,11,7,6,6,7,6,4,4,11,4,5,7,0,0,0,0,0,0,0,0,0,0,0,0,0,0,0,0,0,0,0,0,0,0,0,0,0,0,0,0,0,0,0,0],"split_type":[0,0,0,0,0,0,0,0,0,0,0,0,0,0,0,0,0,0,0,0,0,0,0,0,0,0,0,0,0,0,0,0,0,0,0,0,0,0,0,0,0,0,0,0,0,0,0,0,0,0,0,0,0,0,0,0,0,0,0,0,0,0,0],"sum_hessian":[3.1613755E3,1.6612755E3,1.5001E3,7.8415204E2,8.771235E2,9.470962E2,5.530038E2,3.1416014E1,7.52736E2,5.2977954E2,3.473439E2,4.7689062E2,4.702056E2,1.9297968E2,3.600241E2,3.9742064E0,2.7441809E1,4.3487985E2,3.1785617E2,2.7580957E2,2.5396997E2,2.6505106E2,8.229282E1,2.8190857E2,1.9498204E2,4.4048105E2,2.9724567E1,2.650561E0,1.9032912E2,2.6025977E2,9.976434E1,2.723675E0,1.2505316E0,1.1015711E1,1.6426098E1,3.0014124E2,1.3473865E2,3.0713083E2,1.0725333E1,2.6426445E1,2.4938313E2,2.4756792E2,6.402056E0,2.4219608E2,2.2854998E1,2.4153519E1,5.813931E1,2.6207144E2,1.983713E1,5.2514834E0,1.8973056E2,4.1174625E2,2.8734774E1,2.3768734E1,5.9558325E0,1.4703695E0,1.1801918E0,1.831514E1,1.7201398E2,1.0849333E1,2.4941043E2,7.414884E1,2.5615498E1],"tree_param":{"num_deleted":"0","num_feature":"14","num_nodes":"63","size_leaf_vector":"1"}},{"base_weights":[-4.272284E-3,1.01550706E-1,-1.3372923E-1,-4.7408283E-4,2.1743067E-1,-3.181385E-2,-2.1814506E-1,3.2403836E-1,-4.275732E-2,1.1639163E-1,2.9592407E-1,2.2861014E-1,-7.6644346E-2,-2.8235415E-1,-6.475601E-2,3.6182418E-1,-6.9472563E-1,1.963906E-2,-3.4695724E-1,1.6498187E-1,-3.5718167E-1,5.290656E-1,1.911418E-1,-8.6360914E-1,3.0345148E-1,6.2280476E-2,-1.7788137E-1,-3.8042992E-1,-1.6108829E-1,-4.650626E-1,5.126459E-3,1.3379273E-2,4.0010106E-2,-7.0055984E-2,2.7719153E-2,-2.2085204E-3,1.4702695E-2,-2.9829917E-2,-7.010548E-3,2.8190602E-2,4.955736E-3,-2.8866306E-2,2.2984795E-2,2.8442506E-2,-2.0879414E-2,1.1806691E-2,-1.5554187E-2,-5.6072384E-2,-1.9872146E-4,-2.0931225E-2,1.9114213E-2,-4.3148645E-3,1.3025874E-2,-1.4511664E-2,6.682001E-4,-1.4879249E-2,-2.8919442E-2,-1.40658785E-2,3.5016001E-3,4.0047403E-2,-3.3205807E-2,1.1027492E-2,-5.486596E-3],"categories":[],"categories_nodes":[],"categories_segments":[],"categories_sizes":[],"default_left":[0,0,0,0,0,0,0,0,0,0,0,0,0,0,0,0,0,0,0,0,0,0,0,0,0,0,0,0,0,0,0,0,0,0,0,0,0,0,0,0,0,0,0,0,0,0,0,0,0,0,0,0,0,0,0,0,0,0,0,0,0,0,0],"id":18,"left_children":[1,3,5,7,9,11,13,15,17,19,21,23,25,27,29,31,33,35,37,39,41,43,45,47,49,51,53,55,57,59,61,-1,-1,-1,-1,-1,-1,-1,-1,-1,-1,-1,-1,-1,-1,-1,-1,-1,-1,-1,-1,-1,-1,-1,-1,-1,-1,-1,-1,-1,-1,-1,-1],"loss_changes":[4.362334E1,2.0714567E1,1.2314682E1,1.28125515E1,6.4716797E0,7.6064425E0,7.6952705E0,4.3950195E0,1.568719E1,8.350132E0,1.1161591E1,8.086067E0,7.8210554E0,6.501217E0,6.5036488E0,4.1009197E0,4.475706E0,1.2032889E1,7.1762123E0,8.546664E0,6.351815E0,5.6003036E0,7.2962217E0,1.4136395E0,5.3011436E0,6.9388237E0,6.9114933E0,4.818798E0,6.92369E0,9.23909E0,4.94435E0,0E0,0E0,0E0,0E0,0E0,0E0,0E0,0E0,0E0,0E0,0E0,0E0,0E0,0E0,0E0,0E0,0E0,0E0,0E0,0E0,0E0,0E0,0E0,0E0,0E0,0E0,0E0,0E0,0E0,0E0,0E0,0E0],"parents":[2147483647,0,0,1,1,2,2,3,3,4,4,5,5,6,6,7,7,8,8,9,9,10,10,11,11,12,12,13,13,14,14,15,15,16,16,17,17,18,18,19,19,20,20,21,21,22,22,23,23,24,24,25,25,26,26,27,27,28,28,29,29,30,30],"right_children":[2,4,6,8,10,12,14,16,18,20,22,24,26,28,30,32,34,36,38,40,42,44,46,48,50,52,54,56,58,60,62,-1,-1,-1,-1,-1,-1,-1,-1,-1,-1,-1,-1,-1,-1,-1,-1,-1,-1,-1,-1,-1,-1,-1,-1,-1,-1,-1,-1,-1,-1,-1,-1],"split_conditions":[1E0,1E0,4.6E1,2E0,3.4592097E5,2E0,8.105122E5,7.2E1,2.80979E4,1.486438E4,1.87693E3,2.2E1,1.11446E3,1E0,2.6E1,9.56E-1,1.7736378E6,1.353913E6,1.7736378E6,3.3E1,9.45E-1,1.72E2,6.5E1,1E0,1.6E1,9.263505E4,9.593362E5,1.024613E4,2.0210512E5,1.0235382E6,4.09846E3,1.3379273E-2,4.0010106E-2,-7.0055984E-2,2.7719153E-2,-2.2085204E-3,1.4702695E-2,-2.9829917E-2,-7.010548E-3,2.8190602E-2,4.955736E-3,-2.8866306E-2,2.2984795E-2,2.8442506E-2,-2.0879414E-2,1.1806691E-2,-1.5554187E-2,-5.6072384E-2,-1.9872146E-4,-2.0931225E-2,1.9114213E-2,-4.3148645E-3,1.3025874E-2,-1.4511664E-2,6.682001E-4,-1.4879249E-2,-2.8919442E-2,-1.40658785E-2,3.5016001E-3,4.0047403E-2,-3.3205807E-2,1.1027492E-2,-5.486596E-3],"split_indices":[9,10,11,2,6,2,6,11,4,4,3,11,3,10,7,12,6,6,6,11,12,7,11,2,7,6,6,4,6,6,3,0,0,0,0,0,0,0,0,0,0,0,0,0,0,0,0,0,0,0,0,0,0,0,0,0,0,0,0,0,0,0,0],"split_type":[0,0,0,0,0,0,0,0,0,0,0,0,0,0,0,0,0,0,0,0,0,0,0,0,0,0,0,0,0,0,0,0,0,0,0,0,0,0,0,0,0,0,0,0,0,0,0,0,0,0,0,0,0,0,0,0,0,0,0,0,0,0,0],"sum_hessian":[3.1823052E3,1.7511031E3,1.4312021E3,9.3175183E2,8.1935126E2,6.490181E2,7.82184E2,1.0664175E2,8.251101E2,3.593142E2,4.6003705E2,9.47145E1,5.5430365E2,5.507836E2,2.3140039E2,1.0344965E2,3.1920943E0,6.854488E2,1.3966133E2,3.26469E2,3.2845215E1,1.4139117E2,3.1864587E2,5.397998E0,8.93165E1,2.3382152E2,3.2048212E2,3.033263E2,2.4745734E2,3.355172E1,1.9784868E2,8.6471214E1,1.697844E1,1.9612663E0,1.2308279E0,5.568126E2,1.2863615E2,6.2413223E1,7.724811E1,4.5202847E1,2.8126614E2,2.6103659E1,6.7415543E0,1.3607167E2,5.319512E0,2.929332E2,2.5712685E1,3.9182086E0,1.4797891E0,8.367092E0,8.094941E1,1.3397359E2,9.984793E1,2.015556E2,1.1892653E2,2.1560133E2,8.772497E1,1.6263635E2,8.482097E1,4.1477327E0,2.9403986E1,6.8483604E1,1.2936507E2],"tree_param":{"num_deleted":"0","num_feature":"14","num_nodes":"63","size_leaf_vector":"1"}},{"base_weights":[-1.0430715E-2,-1.6884854E-1,1.6617171E-1,-8.9659005E-2,-2.3953936E-1,2.5834924E-1,5.121277E-3,-1.734654E-1,2.3482416E-2,-1.1046224E-1,-2.9664144E-1,4.673268E-1,2.0914413E-1,-1.0749438E-1,1.065585E-1,4.721576E-1,-2.0197181E-1,-5.8254343E-2,3.4651518E-2,8.891128E-2,-2.3173036E-1,-1.0077964E-1,-3.323447E-1,1.1140664E0,4.2716008E-1,1.1424726E-1,3.3609062E-1,-4.2931503E-3,-3.3997855E-1,5.677464E-1,5.1182766E-2,1.0304145E-2,4.721923E-2,2.6049152E-2,-1.116675E-2,2.6525551E-2,4.6034993E-4,-5.657101E-3,4.0873833E-2,-5.3144425E-2,-1.0532807E-2,-2.1292552E-4,-5.610282E-2,-3.738612E-2,-1.5431604E-2,8.73757E-4,6.315281E-2,-3.3199962E-2,2.2855518E-2,4.488472E-3,3.3252127E-2,1.5542956E-2,4.4280067E-2,-9.044517E-3,1.4598827E-2,1.6092919E-2,-2.1957425E-2,4.1866433E-2,1.2151809E-2,-5.0567288E-2,3.3271478E-3],"categories":[],"categories_nodes":[],"categories_segments":[],"categories_sizes":[],"default_left":[0,0,0,0,0,0,0,0,0,0,0,0,0,0,0,0,0,0,0,0,0,0,0,0,0,0,1,0,0,0,0,0,0,0,0,0,0,0,0,0,0,0,0,0,0,0,0,0,0,0,0,0,0,0,0,0,0,0,0,0,0],"id":19,"left_children":[1,3,5,7,9,11,13,15,17,19,21,23,25,27,29,31,33,-1,35,37,39,41,43,45,47,49,51,53,55,57,59,-1,-1,-1,-1,-1,-1,-1,-1,-1,-1,-1,-1,-1,-1,-1,-1,-1,-1,-1,-1,-1,-1,-1,-1,-1,-1,-1,-1,-1,-1],"loss_changes":[8.824486E1,9.286102E0,2.2140701E1,7.4549437E0,6.4376793E0,9.656223E0,6.2252245E0,8.405631E0,4.490981E0,6.5689306E0,4.2184258E0,4.199314E0,9.232872E0,6.1951127E0,7.292365E0,2.242117E0,6.806097E0,0E0,4.1978846E0,1.5278051E1,2.7307987E0,9.377893E0,4.8304977E0,1.5957184E0,5.894169E0,5.8982296E0,4.2820396E0,9.464283E0,5.3519306E0,2.4780054E0,4.262474E0,0E0,0E0,0E0,0E0,0E0,0E0,0E0,0E0,0E0,0E0,0E0,0E0,0E0,0E0,0E0,0E0,0E0,0E0,0E0,0E0,0E0,0E0,0E0,0E0,0E0,0E0,0E0,0E0,0E0,0E0],"parents":[2147483647,0,0,1,1,2,2,3,3,4,4,5,5,6,6,7,7,8,8,9,9,10,10,11,11,12,12,13,13,14,14,15,15,16,16,18,18,19,19,20,20,21,21,22,22,23,23,24,24,25,25,26,26,27,27,28,28,29,29,30,30],"right_children":[2,4,6,8,10,12,14,16,18,20,22,24,26,28,30,32,34,-1,36,38,40,42,44,46,48,50,52,54,56,58,60,-1,-1,-1,-1,-1,-1,-1,-1,-1,-1,-1,-1,-1,-1,-1,-1,-1,-1,-1,-1,-1,-1,-1,-1,-1,-1,-1,-1,-1,-1],"split_conditions":[1E0,1E0,1E0,1E0,4.1E1,3.6E1,1E0,2.4E1,3.6E-2,1.08097E3,3.66E-1,6.235527E4,2E0,5.4E1,4E0,2.9471694E5,1.3553E2,-5.8254343E-2,9.93926E3,8.79686E4,1.15205E3,6.9E1,4.16E-1,3.1486E2,6.7421E2,3E1,9.92E-1,1.6835682E6,3.1064E2,9.6584E3,2.73476E4,1.0304145E-2,4.721923E-2,2.6049152E-2,-1.116675E-2,2.6525551E-2,4.6034993E-4,-5.657101E-3,4.0873833E-2,-5.3144425E-2,-1.0532807E-2,-2.1292552E-4,-5.610282E-2,-3.738612E-2,-1.5431604E-2,8.73757E-4,6.315281E-2,-3.3199962E-2,2.2855518E-2,4.488472E-3,3.3252127E-2,1.5542956E-2,4.4280067E-2,-9.044517E-3,1.4598827E-2,1.6092919E-2,-2.1957425E-2,4.1866433E-2,1.2151809E-2,-5.0567288E-2,3.3271478E-3],"split_indices":[0,9,9,10,11,11,10,11,12,3,12,6,0,11,5,6,3,0,6,6,3,11,12,4,4,5,12,6,3,4,6,0,0,0,0,0,0,0,0,0,0,0,0,0,0,0,0,0,0,0,0,0,0,0,0,0,0,0,0,0,0],"split_type":[0,0,0,0,0,0,0,0,0,0,0,0,0,0,0,0,0,0,0,0,0,0,0,0,0,0,0,0,0,0,0,0,0,0,0,0,0,0,0,0,0,0,0,0,0,0,0,0,0,0,0,0,0,0,0,0,0,0,0,0,0],"sum_hessian":[3.1521934E3,1.661669E3,1.4905244E3,7.8479315E2,8.7687573E2,9.475743E2,5.429501E2,4.5053708E2,3.342561E2,2.6984216E2,6.0703357E2,1.7897165E2,7.686026E2,2.572696E2,2.856805E2,1.8393423E1,4.3214368E2,2.1499877E0,3.321061E2,1.0215643E2,1.6768571E2,9.418329E1,5.128503E2,8.901947E0,1.700697E2,4.4090842E2,3.2769418E2,1.7888142E2,7.838815E1,2.9633135E1,2.560474E2,1.2683408E1,5.710016E0,1.1732016E1,4.2041165E2,1.5241037E1,3.1686505E2,8.0637825E1,2.1518612E1,2.9241252E0,1.647616E2,8.696808E1,7.2152066E0,2.604708E1,4.868032E2,1.198449E0,7.7034984E0,3.9778323E0,1.6609187E2,4.232613E2,1.7647125E1,3.148052E2,1.2888989E1,1.12320244E2,6.656118E1,9.922461E0,6.84657E1,1.5328416E1,1.4304719E1,2.7247243E0,2.5332266E2],"tree_param":{"num_deleted":"0","num_feature":"14","num_nodes":"61","size_leaf_vector":"1"}},{"base_weights":[-3.236291E-3,-1.4954717E-1,1.6101383E-1,3.079096E-2,-1.7789297E-1,1.215561E-1,5.118763E-1,-1.9753341E-1,2.5726438E-1,-3.2092005E-1,-1.1171427E-1,1.6066564E-2,2.2330864E-1,7.2708535E-1,2.9036862E-1,-8.803844E-1,-1.5329152E-1,5.908937E-1,1.1779463E-1,-1.18417665E-1,-3.8928235E-1,2.594794E-1,-1.607172E-1,-6.28269E-2,1.5337111E-1,2.5161335E-1,-6.613753E-2,8.312808E-1,1.0346355E-1,1.0795436E0,2.1803543E-1,-6.873375E-2,4.7949832E-2,1.6491524E-3,-1.7462835E-2,-6.3853017E-3,3.8796287E-2,1.0924406E-2,-1.4939062E-2,-4.066575E-2,-1.8037016E-3,-1.6397499E-2,-2.784741E-2,4.374681E-3,2.7504463E-2,-2.9548744E-2,-5.11692E-3,1.348732E-3,-1.0872905E-2,1.2674199E-2,-7.2784647E-3,1.5932482E-2,7.199311E-3,-1.5561151E-2,2.103629E-2,4.6801973E-2,8.351781E-3,4.019858E-2,-1.5502212E-2,1.4623952E-2,5.966971E-2,5.2434597E-3,3.3976775E-2],"categories":[],"categories_nodes":[],"categories_segments":[],"categories_sizes":[],"default_left":[0,0,0,0,0,0,1,0,0,0,0,0,0,0,0,0,0,0,0,0,0,0,0,0,1,0,0,0,1,0,0,0,0,0,0,0,0,0,0,0,0,0,0,0,0,0,0,0,0,0,0,0,0,0,0,0,0,0,0,0,0,0,0],"id":20,"left_children":[1,3,5,7,9,11,13,15,17,19,21,23,25,27,29,31,33,35,37,39,41,43,45,47,49,51,53,55,57,59,61,-1,-1,-1,-1,-1,-1,-1,-1,-1,-1,-1,-1,-1,-1,-1,-1,-1,-1,-1,-1,-1,-1,-1,-1,-1,-1,-1,-1,-1,-1,-1,-1],"loss_changes":[7.540619E1,8.488617E0,2.0403454E1,1.1750896E1,1.35397835E1,1.4274036E1,6.89793E0,3.2860413E0,5.236243E0,6.22731E0,1.7905334E1,7.095791E0,5.5630302E0,4.785755E0,4.054677E0,7.39119E0,3.9377718E0,4.5356264E0,3.4906855E0,6.5973244E0,3.2967796E0,5.6952505E0,2.1746124E1,5.7846937E0,7.189713E0,4.4049606E0,7.4212403E0,4.3040314E0,3.6892467E0,1.9370508E-1,3.5896435E0,0E0,0E0,0E0,0E0,0E0,0E0,0E0,0E0,0E0,0E0,0E0,0E0,0E0,0E0,0E0,0E0,0E0,0E0,0E0,0E0,0E0,0E0,0E0,0E0,0E0,0E0,0E0,0E0,0E0,0E0,0E0,0E0],"parents":[2147483647,0,0,1,1,2,2,3,3,4,4,5,5,6,6,7,7,8,8,9,9,10,10,11,11,12,12,13,13,14,14,15,15,16,16,17,17,18,18,19,19,20,20,21,21,22,22,23,23,24,24,25,25,26,26,27,27,28,28,29,29,30,30],"right_children":[2,4,6,8,10,12,14,16,18,20,22,24,26,28,30,32,34,36,38,40,42,44,46,48,50,52,54,56,58,60,62,-1,-1,-1,-1,-1,-1,-1,-1,-1,-1,-1,-1,-1,-1,-1,-1,-1,-1,-1,-1,-1,-1,-1,-1,-1,-1,-1,-1,-1,-1,-1,-1],"split_conditions":[1E0,2E0,1E0,1E0,6E0,1E0,5.72E-1,3.49591E3,9.79028E3,3E0,7E0,1.4E1,1.65E2,1.57E2,1.01898E3,1.51E2,7.64359E3,3.1E1,9.3E-1,1.7E1,4.45543E3,1.13E2,8E0,1E0,7.73E-1,1.161948E4,1.615089E4,1.3E1,3.41E-1,6E0,9.14E-1,-6.873375E-2,4.7949832E-2,1.6491524E-3,-1.7462835E-2,-6.3853017E-3,3.8796287E-2,1.0924406E-2,-1.4939062E-2,-4.066575E-2,-1.8037016E-3,-1.6397499E-2,-2.784741E-2,4.374681E-3,2.7504463E-2,-2.9548744E-2,-5.11692E-3,1.348732E-3,-1.0872905E-2,1.2674199E-2,-7.2784647E-3,1.5932482E-2,7.199311E-3,-1.5561151E-2,2.103629E-2,4.6801973E-2,8.351781E-3,4.019858E-2,-1.5502212E-2,1.4623952E-2,5.966971E-2,5.2434597E-3,3.3976775E-2],"split_indices":[0,2,1,2,2,10,12,4,4,2,2,5,7,7,4,7,3,7,12,7,3,7,2,9,12,4,4,2,12,2,12,0,0,0,0,0,0,0,0,0,0,0,0,0,0,0,0,0,0,0,0,0,0,0,0,0,0,0,0,0,0,0,0],"split_type":[0,0,0,0,0,0,0,0,0,0,0,0,0,0,0,0,0,0,0,0,0,0,0,0,0,0,0,0,0,0,0,0,0,0,0,0,0,0,0,0,0,0,0,0,0,0,0,0,0,0,0,0,0,0,0,0,0,0,0,0,0,0,0],"sum_hessian":[3.1357935E3,1.6585121E3,1.4772815E3,2.2526598E2,1.4332461E3,1.3291525E3,1.4812904E2,1.1223822E2,1.13027756E2,4.521654E2,9.810807E2,6.53161E2,6.7599146E2,7.397504E1,7.415401E1,5.6794505E0,1.0655877E2,3.2366432E1,8.066132E1,1.1480952E2,3.3735587E2,1.139118E2,8.671689E2,4.1515857E2,2.3800247E2,6.158943E2,6.009713E1,6.309934E1,1.0875697E1,5.0569277E0,6.9097084E1,4.6756277E0,1.0038228E0,5.505652E1,5.1502254E1,6.690949E0,2.5675484E1,6.534245E1,1.531887E1,1.1222855E1,1.0358666E2,2.4916646E2,8.818942E1,7.237853E1,4.153326E1,1.02513214E2,7.6465564E2,2.6315674E2,1.5200183E2,1.7840729E2,5.9595184E1,3.783043E2,2.3759001E2,4.0214188E1,1.988294E1,5.4150105E1,8.949234E0,3.6864123E0,7.189285E0,1.0900736E0,3.966854E0,5.6475693E1,1.2621389E1],"tree_param":{"num_deleted":"0","num_feature":"14","num_nodes":"63","size_leaf_vector":"1"}},{"base_weights":[-6.3365865E-3,-1.5450908E-1,1.5833065E-1,-1.1746012E-1,-2.7535352E-1,7.859879E-2,2.954405E-1,1.00090235E-1,-1.401448E-1,-4.4189918E-1,-1.8906847E-1,-2.6385551E-2,1.8489818E-1,3.8980365E-1,9.684063E-2,-1.4382206E-1,2.7689973E-1,-2.6023114E-1,-8.809066E-2,-5.2809894E-1,5.0203276E-1,-2.0905373E-1,6.676541E-1,-4.1571587E-2,8.470779E-1,4.023826E-1,9.084058E-2,3.145173E-1,5.886848E-1,5.135789E-1,1.6330253E-2,-2.1460494E-2,1.3635126E-2,6.1372253E-3,3.2986518E-2,-2.6950201E-2,-9.567569E-3,-1.0198314E-2,-6.888397E-4,2.6435307E-3,-3.1119043E-2,-1.77835E-2,5.395789E-2,-5.9070714E-2,-9.755797E-3,-1.7812295E-2,5.6889046E-2,1.4432284E-2,-4.070938E-3,6.753465E-2,5.9671123E-3,1.0155185E-2,3.155655E-2,2.045074E-2,1.3077765E-3,1.1997618E-2,3.0498913E-2,7.4637434E-3,3.390361E-2,-1.3158867E-2,3.440344E-2,-6.020851E-2,2.6188027E-3],"categories":[],"categories_nodes":[],"categories_segments":[],"categories_sizes":[],"default_left":[0,0,0,0,0,0,0,0,0,0,0,0,0,0,0,0,0,0,0,0,0,0,0,0,0,0,0,0,0,0,0,0,0,0,0,0,0,0,0,0,0,0,0,0,0,0,0,0,0,0,0,0,0,0,0,0,0,0,0,0,0,0,0],"id":21,"left_children":[1,3,5,7,9,11,13,15,17,19,21,23,25,27,29,31,33,35,37,39,41,43,45,47,49,51,53,55,57,59,61,-1,-1,-1,-1,-1,-1,-1,-1,-1,-1,-1,-1,-1,-1,-1,-1,-1,-1,-1,-1,-1,-1,-1,-1,-1,-1,-1,-1,-1,-1,-1,-1],"loss_changes":[7.694938E1,7.3997765E0,1.630663E1,6.2925987E0,5.5032253E0,1.0560622E1,1.0248695E1,5.2458677E0,7.1814747E0,1.0999811E1,4.5542574E0,6.359119E0,9.580223E0,5.381241E0,5.9680862E0,6.2258067E0,4.069405E0,6.5791473E0,6.9336386E0,6.681347E0,6.102244E0,3.1945362E0,3.3493974E0,6.2021027E0,2.8418999E0,6.328518E0,6.7703E0,5.8421707E0,3.863411E0,4.0856094E0,6.6761913E0,0E0,0E0,0E0,0E0,0E0,0E0,0E0,0E0,0E0,0E0,0E0,0E0,0E0,0E0,0E0,0E0,0E0,0E0,0E0,0E0,0E0,0E0,0E0,0E0,0E0,0E0,0E0,0E0,0E0,0E0,0E0,0E0],"parents":[2147483647,0,0,1,1,2,2,3,3,4,4,5,5,6,6,7,7,8,8,9,9,10,10,11,11,12,12,13,13,14,14,15,15,16,16,17,17,18,18,19,19,20,20,21,21,22,22,23,23,24,24,25,25,26,26,27,27,28,28,29,29,30,30],"right_children":[2,4,6,8,10,12,14,16,18,20,22,24,26,28,30,32,34,36,38,40,42,44,46,48,50,52,54,56,58,60,62,-1,-1,-1,-1,-1,-1,-1,-1,-1,-1,-1,-1,-1,-1,-1,-1,-1,-1,-1,-1,-1,-1,-1,-1,-1,-1,-1,-1,-1,-1,-1,-1],"split_conditions":[1E0,4.8450597E5,2E0,2E0,7.769693E5,1E0,5.4E1,1E0,6E0,1.68E2,1.4E1,1.77E2,5.6E1,1E0,4.0725E2,2.0690158E5,1.4E2,2.83034E4,2E0,3.44E-1,4.91E-1,3.6E-2,9.4021975E5,2.96E-1,9E0,6.69E-1,3.4E1,1.2E1,3.2E1,3.95E-1,4.4045E2,-2.1460494E-2,1.3635126E-2,6.1372253E-3,3.2986518E-2,-2.6950201E-2,-9.567569E-3,-1.0198314E-2,-6.888397E-4,2.6435307E-3,-3.1119043E-2,-1.77835E-2,5.395789E-2,-5.9070714E-2,-9.755797E-3,-1.7812295E-2,5.6889046E-2,1.4432284E-2,-4.070938E-3,6.753465E-2,5.9671123E-3,1.0155185E-2,3.155655E-2,2.045074E-2,1.3077765E-3,1.1997618E-2,3.0498913E-2,7.4637434E-3,3.390361E-2,-1.3158867E-2,3.440344E-2,-6.020851E-2,2.6188027E-3],"split_indices":[0,6,0,2,6,10,11,2,2,7,2,7,7,1,3,6,7,6,13,12,12,12,6,12,2,12,11,2,7,12,3,0,0,0,0,0,0,0,0,0,0,0,0,0,0,0,0,0,0,0,0,0,0,0,0,0,0,0,0,0,0,0,0],"split_type":[0,0,0,0,0,0,0,0,0,0,0,0,0,0,0,0,0,0,0,0,0,0,0,0,0,0,0,0,0,0,0,0,0,0,0,0,0,0,0,0,0,0,0,0,0,0,0,0,0,0,0,0,0,0,0,0,0,0,0,0,0,0,0],"sum_hessian":[3.15177E3,1.6590072E3,1.4927627E3,1.271238E3,3.877693E2,9.4487445E2,5.4788824E2,1.19717026E2,1.151521E3,1.3092981E2,2.5683948E2,4.7575595E2,4.691185E2,3.7076126E2,1.77127E2,5.0389816E1,6.932721E1,3.4700296E2,8.04518E2,1.2037749E2,1.0552321E1,2.5172336E2,5.1161094E0,4.6856195E2,7.1940126E0,1.4064182E2,3.2847668E2,2.7082285E2,9.993841E1,2.7808006E1,1.49319E2,2.9883947E1,2.050587E1,5.036661E1,1.8960602E1,6.7398766E1,2.796042E2,3.136724E2,4.9084558E2,1.6869024E1,1.0350846E2,4.398761E0,6.1535606E0,2.3735142E0,2.4934985E2,1.6861151E0,3.4299943E0,4.9780704E1,4.1878125E2,3.745791E0,3.4482214E0,7.6171394E1,6.447041E1,5.4597603E1,2.7387906E2,2.1769556E2,5.3127293E1,1.7344818E1,8.259359E1,5.007673E0,2.2800333E1,3.3537946E0,1.4596521E2],"tree_param":{"num_deleted":"0","num_feature":"14","num_nodes":"63","size_leaf_vector":"1"}},{"base_weights":[9.034563E-4,-1.2773025E-1,1.4255698E-1,-1.499199E-1,8.0182664E-2,1.09430894E-1,4.4307455E-1,1.9099943E-2,-1.8370782E-1,-6.7634946E-3,4.474592E-1,3.1008953E-1,7.765623E-2,5.2693814E-1,-6.55805E-2,6.84879E-2,-8.2650733E-1,-7.286365E-1,-1.6764952E-1,6.391784E-1,-5.805245E-2,1.1003428E0,1.987106E-1,-5.5514157E-1,4.0008518E-1,-1.52788E-1,1.479363E-1,1.0930652E-1,6.454867E-1,-5.5876416E-1,3.803628E-1,-2.4025574E-2,5.3394414E-3,5.9573483E-3,-4.7465317E-2,-4.458826E-2,1.000846E-2,-4.852301E-3,-1.2442383E-2,5.145525E-2,-1.3259396E-2,-2.2802174E-2,5.8092107E-3,-1.8869048E-3,7.347962E-2,-5.3319996E-3,4.8731867E-2,9.995385E-3,-6.330345E-2,4.3604042E-2,1.5791E-2,1.0985691E-2,-1.131244E-2,1.2621293E-2,1.8895274E-3,2.27683E-2,-1.7075267E-2,5.26082E-2,2.5944302E-2,4.0484432E-2,-5.151061E-2,2.8856337E-4,5.0558127E-2],"categories":[],"categories_nodes":[],"categories_segments":[],"categories_sizes":[],"default_left":[0,0,0,0,0,0,0,0,0,0,0,0,0,0,0,0,0,0,0,0,0,0,0,0,1,0,0,0,1,0,0,0,0,0,0,0,0,0,0,0,0,0,0,0,0,0,0,0,0,0,0,0,0,0,0,0,0,0,0,0,0,0,0],"id":22,"left_children":[1,3,5,7,9,11,13,15,17,19,21,23,25,27,29,31,33,35,37,39,41,43,45,47,49,51,53,55,57,59,61,-1,-1,-1,-1,-1,-1,-1,-1,-1,-1,-1,-1,-1,-1,-1,-1,-1,-1,-1,-1,-1,-1,-1,-1,-1,-1,-1,-1,-1,-1,-1,-1],"loss_changes":[5.7276688E1,7.6123123E0,1.4843895E1,8.50626E0,5.0969048E0,8.57551E0,6.3564644E0,1.0453649E1,1.07367325E1,4.342878E0,4.7426405E0,1.4553459E1,1.8902245E1,6.2337914E0,5.0214143E0,5.0166755E0,1.7173138E0,5.51528E0,6.893734E0,3.673651E0,8.466111E0,3.5046358E0,5.634203E0,9.78577E0,6.3781834E0,7.5180993E0,1.0277264E1,4.735521E0,4.549999E0,7.793906E0,2.8480024E0,0E0,0E0,0E0,0E0,0E0,0E0,0E0,0E0,0E0,0E0,0E0,0E0,0E0,0E0,0E0,0E0,0E0,0E0,0E0,0E0,0E0,0E0,0E0,0E0,0E0,0E0,0E0,0E0,0E0,0E0,0E0,0E0],"parents":[2147483647,0,0,1,1,2,2,3,3,4,4,5,5,6,6,7,7,8,8,9,9,10,10,11,11,12,12,13,13,14,14,15,15,16,16,17,17,18,18,19,19,20,20,21,21,22,22,23,23,24,24,25,25,26,26,27,27,28,28,29,29,30,30],"right_children":[2,4,6,8,10,12,14,16,18,20,22,24,26,28,30,32,34,36,38,40,42,44,46,48,50,52,54,56,58,60,62,-1,-1,-1,-1,-1,-1,-1,-1,-1,-1,-1,-1,-1,-1,-1,-1,-1,-1,-1,-1,-1,-1,-1,-1,-1,-1,-1,-1,-1,-1,-1,-1],"split_conditions":[1E0,1.63E2,1E0,3.66E-1,9.77E-1,2E0,6.2E1,6.9E1,3.91E-1,2.1159E2,3E0,1.9E1,5E0,3.7E1,6E0,3.6E-2,1.7E1,9.046838E5,8.72932E3,1.76E2,9.63E2,4E1,1.2E1,5.2E1,8.4E-2,3.1E1,4.8E1,3.1899988E6,3.41E-1,1E0,7.2E1,-2.4025574E-2,5.3394414E-3,5.9573483E-3,-4.7465317E-2,-4.458826E-2,1.000846E-2,-4.852301E-3,-1.2442383E-2,5.145525E-2,-1.3259396E-2,-2.2802174E-2,5.8092107E-3,-1.8869048E-3,7.347962E-2,-5.3319996E-3,4.8731867E-2,9.995385E-3,-6.330345E-2,4.3604042E-2,1.5791E-2,1.0985691E-2,-1.131244E-2,1.2621293E-2,1.8895274E-3,2.27683E-2,-1.7075267E-2,5.26082E-2,2.5944302E-2,4.0484432E-2,-5.151061E-2,2.8856337E-4,5.0558127E-2],"split_indices":[0,7,1,12,12,2,11,11,12,3,2,7,2,7,2,12,7,6,4,7,3,11,2,11,12,7,11,6,12,2,11,0,0,0,0,0,0,0,0,0,0,0,0,0,0,0,0,0,0,0,0,0,0,0,0,0,0,0,0,0,0,0,0],"split_type":[0,0,0,0,0,0,0,0,0,0,0,0,0,0,0,0,0,0,0,0,0,0,0,0,0,0,0,0,0,0,0,0,0,0,0,0,0,0,0,0,0,0,0,0,0,0,0,0,0,0,0,0,0,0,0,0,0,0,0,0,0,0,0],"sum_hessian":[3.141372E3,1.646398E3,1.4949741E3,1.4878817E3,1.5851628E2,1.3477731E3,1.4720105E2,2.4795456E2,1.2399271E3,1.289672E2,2.9549095E1,1.8304913E2,1.1647239E3,1.2633574E2,2.0865316E1,2.3514012E2,1.28144245E1,3.42228E1,1.2057043E3,8.64377E0,1.20323425E2,7.207708E0,2.2341387E1,1.6758825E1,1.6629031E2,2.719247E2,8.927992E2,2.8357594E1,9.797814E1,9.787737E0,1.10775795E1,1.4581763E1,2.2055836E2,1.4762002E0,1.1338224E1,2.9144035E1,5.0787654E0,6.46101E2,5.5960333E2,5.9433193E0,2.700451E0,3.6144608E1,8.417882E1,1.9856004E0,5.2221074E0,1.6651201E1,5.690186E0,8.475801E0,8.283023E0,2.377422E1,1.425161E2,4.4464615E1,2.274601E2,4.5750055E2,4.3529868E2,1.603695E1,1.2320644E1,2.1524492E1,7.645365E1,2.32413E0,7.463607E0,7.5834203E0,3.4941587E0],"tree_param":{"num_deleted":"0","num_feature":"14","num_nodes":"63","size_leaf_vector":"1"}},{"base_weights":[-4.7240565E-3,-1.2842305E-1,1.340458E-1,-4.713619E-2,-2.0171666E-1,2.0948654E-1,1.4533475E-3,1.956083E-1,-8.411063E-2,-1.7647766E-1,-4.1816214E-1,1.6036838E-1,4.1418812E-1,3.163086E-2,-5.4264086E-1,5.299855E-1,8.3035E-2,-2.4124919E-1,-1.0836414E-2,-2.1352138E-1,4.6466584E-3,-1.10820875E-1,-7.6074916E-1,3.9762953E-1,1.1329311E-1,3.4157896E-1,7.8745586E-1,-1.0467392E-1,1.5764757E-1,1.7294572E-1,-9.9688995E-1,3.5128918E-2,-3.481912E-2,-3.616819E-2,7.4749673E-3,1.1198985E-2,-1.566768E-2,1.6858375E-2,-2.9181626E-3,6.3975267E-3,-1.2264284E-2,-4.7471323E-3,1.998406E-2,4.1581597E-2,-1.3137E-2,-4.6407364E-2,-2.9524723E-3,2.2576464E-2,-3.2452714E-2,6.734212E-3,-2.9732311E-2,2.9538384E-2,9.990859E-3,5.8502946E-3,5.3465355E-2,-1.0121639E-2,6.3239806E-3,2.1048045E-2,2.4795271E-3,-5.995917E-2,2.422487E-2,-7.715405E-2,2.8449105E-4],"categories":[],"categories_nodes":[],"categories_segments":[],"categories_sizes":[],"default_left":[0,0,0,0,0,0,0,0,0,0,0,0,0,0,0,0,0,0,0,0,0,0,0,0,0,0,0,0,0,0,1,0,0,0,0,0,0,0,0,0,0,0,0,0,0,0,0,0,0,0,0,0,0,0,0,0,0,0,0,0,0,0,0],"id":23,"left_children":[1,3,5,7,9,11,13,15,17,19,21,23,25,27,29,31,33,35,37,39,41,43,45,47,49,51,53,55,57,59,61,-1,-1,-1,-1,-1,-1,-1,-1,-1,-1,-1,-1,-1,-1,-1,-1,-1,-1,-1,-1,-1,-1,-1,-1,-1,-1,-1,-1,-1,-1,-1,-1],"loss_changes":[5.4026905E1,9.904465E0,1.4837408E1,7.1096396E0,4.70475E0,9.439365E0,8.865982E0,3.899571E0,7.902251E0,5.268736E0,9.45694E0,8.489267E0,4.6724377E0,8.803218E0,9.3958645E0,6.0351324E0,4.3725185E0,7.392355E0,7.7808948E0,7.101513E0,5.3209558E0,7.2250667E0,4.9586773E0,7.40753E0,9.756731E0,5.3361244E0,5.3406277E0,5.5923195E0,7.5534134E0,5.655409E0,9.594435E0,0E0,0E0,0E0,0E0,0E0,0E0,0E0,0E0,0E0,0E0,0E0,0E0,0E0,0E0,0E0,0E0,0E0,0E0,0E0,0E0,0E0,0E0,0E0,0E0,0E0,0E0,0E0,0E0,0E0,0E0,0E0,0E0],"parents":[2147483647,0,0,1,1,2,2,3,3,4,4,5,5,6,6,7,7,8,8,9,9,10,10,11,11,12,12,13,13,14,14,15,15,16,16,17,17,18,18,19,19,20,20,21,21,22,22,23,23,24,24,25,25,26,26,27,27,28,28,29,29,30,30],"right_children":[2,4,6,8,10,12,14,16,18,20,22,24,26,28,30,32,34,36,38,40,42,44,46,48,50,52,54,56,58,60,62,-1,-1,-1,-1,-1,-1,-1,-1,-1,-1,-1,-1,-1,-1,-1,-1,-1,-1,-1,-1,-1,-1,-1,-1,-1,-1,-1,-1,-1,-1,-1,-1],"split_conditions":[1E0,1E0,1E0,2E0,2.4E1,1.2E1,6.8E1,3.9E1,6E0,1.7E1,2.18344E3,2E0,2.54306E3,1E0,7E0,2.404098E4,4.1E1,3.3E1,7E0,2.63E-1,1.4E2,2.9E1,9E0,7.1E1,2.070928E4,1.3E1,5.05E-1,1.5E1,5.5E1,2.6E1,6.77E-1,3.5128918E-2,-3.481912E-2,-3.616819E-2,7.4749673E-3,1.1198985E-2,-1.566768E-2,1.6858375E-2,-2.9181626E-3,6.3975267E-3,-1.2264284E-2,-4.7471323E-3,1.998406E-2,4.1581597E-2,-1.3137E-2,-4.6407364E-2,-2.9524723E-3,2.2576464E-2,-3.2452714E-2,6.734212E-3,-2.9732311E-2,2.9538384E-2,9.990859E-3,5.8502946E-3,5.3465355E-2,-1.0121639E-2,6.3239806E-3,2.1048045E-2,2.4795271E-3,-5.995917E-2,2.422487E-2,-7.715405E-2,2.8449105E-4],"split_indices":[0,9,9,2,5,2,11,11,2,5,3,2,3,10,2,3,11,11,2,12,7,7,2,11,3,2,12,5,7,7,12,0,0,0,0,0,0,0,0,0,0,0,0,0,0,0,0,0,0,0,0,0,0,0,0,0,0,0,0,0,0,0,0],"split_type":[0,0,0,0,0,0,0,0,0,0,0,0,0,0,0,0,0,0,0,0,0,0,0,0,0,0,0,0,0,0,0,0,0,0,0,0,0,0,0,0,0,0,0,0,0,0,0,0,0,0,0,0,0,0,0,0,0,0,0,0,0,0,0],"sum_hessian":[3.1453748E3,1.6630299E3,1.4823448E3,7.8929706E2,8.7373285E2,9.444206E2,5.3792426E2,1.0376553E2,6.855315E2,7.8411505E2,8.961778E1,7.6309845E2,1.8132213E2,5.1054913E2,2.737511E1,2.5201488E1,7.856404E1,2.172788E2,4.6825272E2,6.508282E2,1.3328687E2,4.7936512E1,4.168127E1,1.2510714E2,6.3799133E2,1.5339781E2,2.7924303E1,2.4534424E2,2.652049E2,1.0870263E1,1.6504847E1,2.2466738E1,2.7347503E0,5.2296953E0,7.333435E1,2.887385E1,1.8840495E2,5.5532803E1,4.127199E2,5.5131077E1,5.9569714E2,1.0705713E2,2.6229738E1,6.033379E0,4.1903133E1,3.3392426E1,8.288841E0,1.1952093E2,5.5862103E0,6.200652E2,1.7926163E1,5.4474777E1,9.892304E1,8.683552E0,1.9240751E1,1.725107E2,7.283353E1,7.632368E1,1.8888123E2,1.4842583E0,9.386005E0,1.0335245E1,6.1696014E0],"tree_param":{"num_deleted":"0","num_feature":"14","num_nodes":"63","size_leaf_vector":"1"}},{"base_weights":[5.1780585E-3,-1.1187542E-1,1.3542557E-1,-4.1218594E-2,-1.7529526E-1,1.00321546E-1,4.4935212E-1,-4.678437E-1,-2.0773415E-2,-1.4726621E-1,-4.223483E-1,2.0595003E-2,1.7823797E-1,6.2332785E-1,2.695025E-1,6.592989E-1,-6.8105954E-1,-5.889087E-2,1.5856417E-1,9.369432E-2,-1.8572788E-1,-8.250524E-2,-6.875439E-1,-4.9062304E-2,1.4227344E-1,-9.79719E-2,1.9835542E-1,5.4783535E-1,6.1639458E-2,5.3228773E-2,1.9159548E-1,9.310211E-3,6.4388685E-2,-3.7873182E-2,2.4421463E-2,-1.8975636E-3,-4.5618474E-2,5.574995E-2,4.3960703E-3,-7.0034824E-3,1.612701E-2,-1.574899E-2,-6.4056143E-3,9.7725885E-3,-3.2778054E-2,-4.3205816E-2,-1.4213833E-3,2.6745663E-3,-7.590434E-3,-5.244583E-2,8.259621E-3,-1.9498428E-2,1.3999841E-2,9.399277E-3,2.725392E-2,3.8896523E-2,1.0098763E-2,4.4607767E-3,3.0885438E-2],"categories":[],"categories_nodes":[],"categories_segments":[],"categories_sizes":[],"default_left":[0,0,0,0,0,0,1,0,0,0,0,0,0,0,0,0,0,0,0,0,0,0,0,0,0,0,0,0,0,0,0,0,0,0,0,0,0,0,0,0,0,0,0,0,0,0,0,0,0,0,0,0,0,0,0,0,0,0,0],"id":24,"left_children":[1,3,5,7,9,11,13,15,17,19,21,23,25,27,29,31,33,35,37,39,41,43,45,47,49,51,53,55,-1,-1,57,-1,-1,-1,-1,-1,-1,-1,-1,-1,-1,-1,-1,-1,-1,-1,-1,-1,-1,-1,-1,-1,-1,-1,-1,-1,-1,-1,-1],"loss_changes":[4.792358E1,7.4114246E0,1.6350758E1,6.83222E0,5.9771748E0,8.317087E0,4.5051155E0,9.058807E0,5.1334004E0,7.2909393E0,7.9041357E0,5.627892E0,3.7828941E0,2.7824192E0,4.453886E0,1.6057374E0,3.105854E0,1.1026363E1,8.797888E0,5.859826E0,5.002178E0,6.4761224E0,5.7338085E0,4.4598265E0,6.7716093E0,5.2577662E0,2.1685848E0,5.3076916E0,0E0,0E0,2.9858458E0,0E0,0E0,0E0,0E0,0E0,0E0,0E0,0E0,0E0,0E0,0E0,0E0,0E0,0E0,0E0,0E0,0E0,0E0,0E0,0E0,0E0,0E0,0E0,0E0,0E0,0E0,0E0,0E0],"parents":[2147483647,0,0,1,1,2,2,3,3,4,4,5,5,6,6,7,7,8,8,9,9,10,10,11,11,12,12,13,13,14,14,15,15,16,16,17,17,18,18,19,19,20,20,21,21,22,22,23,23,24,24,25,25,26,26,27,27,30,30],"right_children":[2,4,6,8,10,12,14,16,18,20,22,24,26,28,30,32,34,36,38,40,42,44,46,48,50,52,54,56,-1,-1,58,-1,-1,-1,-1,-1,-1,-1,-1,-1,-1,-1,-1,-1,-1,-1,-1,-1,-1,-1,-1,-1,-1,-1,-1,-1,-1,-1,-1],"split_conditions":[1E0,1E0,1E0,3E0,2.4E1,1E0,5.75E-1,3.41E-1,9.5E-1,2E0,1.53672E3,1.4E1,2.29E-1,6.205174E4,1.05894E3,1.1E1,1.149203E4,9.25E-1,9.69E-1,1E0,6E0,1.2E1,9E0,8E0,7.169531E4,8E0,2.7006992E7,9.30357E3,6.1639458E-2,5.3228773E-2,9.14E-1,9.310211E-3,6.4388685E-2,-3.7873182E-2,2.4421463E-2,-1.8975636E-3,-4.5618474E-2,5.574995E-2,4.3960703E-3,-7.0034824E-3,1.612701E-2,-1.574899E-2,-6.4056143E-3,9.7725885E-3,-3.2778054E-2,-4.3205816E-2,-1.4213833E-3,2.6745663E-3,-7.590434E-3,-5.244583E-2,